{"learner":{"attributes":{"scikit_learn":"{\"_estimator_type\": \"classifier\"}"},"feature_names":["年紀","性別","教育程度yr","q1","q2","q3","q4","q5","q6","q7","q8","q9","q10"],"feature_types":["int","int","int","int","float","float","int","int","int","int","int","int","int"],"gradient_booster":{"gbtree":{"model":{"gbtree_model_param":{"num_parallel_tree":"1","num_trees":"500"},"iteration_indptr":[0,1,2,3,4,5,6,7,8,9,10,11,12,13,14,15,16,17,18,19,20,21,22,23,24,25,26,27,28,29,30,31,32,33,34,35,36,37,38,39,40,41,42,43,44,45,46,47,48,49,50,51,52,53,54,55,56,57,58,59,60,61,62,63,64,65,66,67,68,69,70,71,72,73,74,75,76,77,78,79,80,81,82,83,84,85,86,87,88,89,90,91,92,93,94,95,96,97,98,99,100,101,102,103,104,105,106,107,108,109,110,111,112,113,114,115,116,117,118,119,120,121,122,123,124,125,126,127,128,129,130,131,132,133,134,135,136,137,138,139,140,141,142,143,144,145,146,147,148,149,150,151,152,153,154,155,156,157,158,159,160,161,162,163,164,165,166,167,168,169,170,171,172,173,174,175,176,177,178,179,180,181,182,183,184,185,186,187,188,189,190,191,192,193,194,195,196,197,198,199,200,201,202,203,204,205,206,207,208,209,210,211,212,213,214,215,216,217,218,219,220,221,222,223,224,225,226,227,228,229,230,231,232,233,234,235,236,237,238,239,240,241,242,243,244,245,246,247,248,249,250,251,252,253,254,255,256,257,258,259,260,261,262,263,264,265,266,267,268,269,270,271,272,273,274,275,276,277,278,279,280,281,282,283,284,285,286,287,288,289,290,291,292,293,294,295,296,297,298,299,300,301,302,303,304,305,306,307,308,309,310,311,312,313,314,315,316,317,318,319,320,321,322,323,324,325,326,327,328,329,330,331,332,333,334,335,336,337,338,339,340,341,342,343,344,345,346,347,348,349,350,351,352,353,354,355,356,357,358,359,360,361,362,363,364,365,366,367,368,369,370,371,372,373,374,375,376,377,378,379,380,381,382,383,384,385,386,387,388,389,390,391,392,393,394,395,396,397,398,399,400,401,402,403,404,405,406,407,408,409,410,411,412,413,414,415,416,417,418,419,420,421,422,423,424,425,426,427,428,429,430,431,432,433,434,435,436,437,438,439,440,441,442,443,444,445,446,447,448,449,450,451,452,453,454,455,456,457,458,459,460,461,462,463,464,465,466,467,468,469,470,471,472,473,474,475,476,477,478,479,480,481,482,483,484,485,486,487,488,489,490,491,492,493,494,495,496,497,498,499,500],"tree_info":[0,0,0,0,0,0,0,0,0,0,0,0,0,0,0,0,0,0,0,0,0,0,0,0,0,0,0,0,0,0,0,0,0,0,0,0,0,0,0,0,0,0,0,0,0,0,0,0,0,0,0,0,0,0,0,0,0,0,0,0,0,0,0,0,0,0,0,0,0,0,0,0,0,0,0,0,0,0,0,0,0,0,0,0,0,0,0,0,0,0,0,0,0,0,0,0,0,0,0,0,0,0,0,0,0,0,0,0,0,0,0,0,0,0,0,0,0,0,0,0,0,0,0,0,0,0,0,0,0,0,0,0,0,0,0,0,0,0,0,0,0,0,0,0,0,0,0,0,0,0,0,0,0,0,0,0,0,0,0,0,0,0,0,0,0,0,0,0,0,0,0,0,0,0,0,0,0,0,0,0,0,0,0,0,0,0,0,0,0,0,0,0,0,0,0,0,0,0,0,0,0,0,0,0,0,0,0,0,0,0,0,0,0,0,0,0,0,0,0,0,0,0,0,0,0,0,0,0,0,0,0,0,0,0,0,0,0,0,0,0,0,0,0,0,0,0,0,0,0,0,0,0,0,0,0,0,0,0,0,0,0,0,0,0,0,0,0,0,0,0,0,0,0,0,0,0,0,0,0,0,0,0,0,0,0,0,0,0,0,0,0,0,0,0,0,0,0,0,0,0,0,0,0,0,0,0,0,0,0,0,0,0,0,0,0,0,0,0,0,0,0,0,0,0,0,0,0,0,0,0,0,0,0,0,0,0,0,0,0,0,0,0,0,0,0,0,0,0,0,0,0,0,0,0,0,0,0,0,0,0,0,0,0,0,0,0,0,0,0,0,0,0,0,0,0,0,0,0,0,0,0,0,0,0,0,0,0,0,0,0,0,0,0,0,0,0,0,0,0,0,0,0,0,0,0,0,0,0,0,0,0,0,0,0,0,0,0,0,0,0,0,0,0,0,0,0,0,0,0,0,0,0,0,0,0,0,0,0,0,0,0,0,0,0,0,0,0,0,0,0,0,0,0,0,0,0,0,0,0,0,0,0,0,0,0,0,0,0,0,0,0,0,0,0,0,0,0,0,0,0,0,0,0,0,0,0,0,0,0,0,0,0,0,0,0,0,0,0,0,0],"trees":[{"base_weights":[4.1747573E-1,1.8716417E-1,-7.5348836E-1,-1.2647059E0,2.4096385E-2,-0E0,-1.483721E-1,2.8695652E-2,-4.888889E-2],"categories":[],"categories_nodes":[],"categories_segments":[],"categories_sizes":[],"default_left":[0,0,0,0,0,0,0,0,0],"id":0,"left_children":[1,-1,3,5,7,-1,-1,-1,-1],"loss_changes":[1.5804243E2,0E0,2.3878122E1,4.2920647E0,2.0507536E0,0E0,0E0,0E0,0E0],"parents":[2147483647,0,0,2,2,3,3,4,4],"right_children":[2,-1,4,6,8,-1,-1,-1,-1],"split_conditions":[1E0,1.8716417E-1,7.6E1,1E0,1E0,-0E0,-1.483721E-1,2.8695652E-2,-4.888889E-2],"split_indices":[7,0,0,9,3,0,0,0,0],"split_type":[0,0,0,0,0,0,0,0,0],"sum_hessian":[1.02E2,4.925E1,5.275E1,3.3E1,1.975E1,1.75E0,3.125E1,1.625E1,3.5E0],"tree_param":{"num_deleted":"0","num_feature":"13","num_nodes":"9","size_leaf_vector":"1"}},{"base_weights":[4.3985963E-1,1.5531026E0,-5.761586E-1,1.7969492E-1,3.4700125E-1,-1.017744E0,2.720295E-1,-0E0,5.7758108E-2,-0E0,-1.2151587E-1,5.7762094E-2,-2.3477988E-2],"categories":[],"categories_nodes":[],"categories_segments":[],"categories_sizes":[],"default_left":[0,0,0,0,0,0,0,0,0,0,0,0,0],"id":1,"left_children":[1,3,5,-1,7,9,11,-1,-1,-1,-1,-1,-1],"loss_changes":[1.1866368E2,3.3247375E-1,2.1740904E1,0E0,5.15042E-1,4.3557396E0,2.8849468E0,0E0,0E0,0E0,0E0,0E0,0E0],"parents":[2147483647,0,0,1,1,2,2,4,4,5,5,6,6],"right_children":[2,4,6,-1,8,10,12,-1,-1,-1,-1,-1,-1],"split_conditions":[1E0,1E0,7.9E1,1.7969492E-1,7.4E1,1E0,1E0,-0E0,5.7758108E-2,-0E0,-1.2151587E-1,5.7762094E-2,-2.3477988E-2],"split_indices":[7,3,0,0,0,9,3,0,0,0,0,0,0],"split_type":[0,0,0,0,0,0,0,0,0,0,0,0,0],"sum_hessian":[1.0139369E2,4.9069016E1,5.2324677E1,4.411255E1,4.956466E0,3.5829247E1,1.649543E1,1.4869399E0,3.4695263E0,1.9999485E0,3.3829296E1,1.3497222E1,2.998208E0],"tree_param":{"num_deleted":"0","num_feature":"13","num_nodes":"13","size_leaf_vector":"1"}},{"base_weights":[3.6934388E-1,1.403341E0,-5.482646E-1,2.3724711E-1,1.6519746E-1,-9.305879E-1,1.7687798E-1,7.464339E-2,-0E0,-0E0,-1.0678863E-1,6.991411E-2,-0E0],"categories":[],"categories_nodes":[],"categories_segments":[],"categories_sizes":[],"default_left":[0,0,0,0,0,0,0,0,0,0,0,0,0],"id":2,"left_children":[1,3,5,7,-1,9,11,-1,-1,-1,-1,-1,-1],"loss_changes":[9.866524E1,1.7877655E0,1.6477962E1,1.7599211E0,0E0,2.3531036E0,1.2688365E0,0E0,0E0,0E0,0E0,0E0,0E0],"parents":[2147483647,0,0,1,1,2,2,3,3,5,5,6,6],"right_children":[2,4,6,8,-1,10,12,-1,-1,-1,-1,-1,-1],"split_conditions":[1E0,1E0,7.9E1,1E0,1.6519746E-1,1E0,1E0,7.464339E-2,-0E0,-0E0,-1.0678863E-1,6.991411E-2,-0E0],"split_indices":[7,4,0,6,0,8,6,0,0,0,0,0,0],"split_type":[0,0,0,0,0,0,0,0,0,0,0,0,0],"sum_hessian":[1.0037565E2,4.797066E1,5.2404987E1,5.58192E0,4.2388744E1,3.5933968E1,1.647102E1,3.6266031E0,1.9553168E0,5E-1,3.5433968E1,3.494026E0,1.2976993E1],"tree_param":{"num_deleted":"0","num_feature":"13","num_nodes":"13","size_leaf_vector":"1"}},{"base_weights":[3.2127494E-1,1.4213614E-1,-4.6461725E-1,-8.725121E-1,2.735325E-1,-1.2009744E-1,-0E0,-0E0,7.267201E-2],"categories":[],"categories_nodes":[],"categories_segments":[],"categories_sizes":[],"default_left":[0,0,1,0,0,0,0,0,0],"id":3,"left_children":[1,-1,3,5,7,-1,-1,-1,-1],"loss_changes":[7.798707E1,0E0,1.7830883E1,5.5900917E0,2.1097956E0,0E0,0E0,0E0,0E0],"parents":[2147483647,0,0,2,2,3,3,4,4],"right_children":[2,-1,4,6,8,-1,-1,-1,-1],"split_conditions":[1E0,1.4213614E-1,2E0,7.9E1,8.1E1,-1.2009744E-1,-0E0,-0E0,7.267201E-2],"split_indices":[6,0,4,0,0,0,0,0,0],"split_type":[0,0,0,0,0,0,0,0,0],"sum_hessian":[9.8255035E1,4.4804886E1,5.3450153E1,3.6054314E1,1.7395838E1,2.7354233E1,8.700082E0,1.0408537E1,6.9873E0],"tree_param":{"num_deleted":"0","num_feature":"13","num_nodes":"9","size_leaf_vector":"1"}},{"base_weights":[3.23179E-1,1.2162281E0,-3.7028387E-1,1.5577997E-1,1.415718E-1,-7.7619463E-1,1.5487213E-1,2.9550847E-2,-0E0,-0E0,-9.272123E-2,-0E0,3.39418E-2],"categories":[],"categories_nodes":[],"categories_segments":[],"categories_sizes":[],"default_left":[0,0,0,0,0,0,0,0,0,0,0,0,0],"id":4,"left_children":[1,3,5,7,-1,9,11,-1,-1,-1,-1,-1,-1],"loss_changes":[6.2082626E1,2.0185089E-1,1.2871281E1,2.0342465E-1,0E0,2.497057E0,8.577075E-1,0E0,0E0,0E0,0E0,0E0,0E0],"parents":[2147483647,0,0,1,1,2,2,3,3,5,5,6,6],"right_children":[2,4,6,8,-1,10,12,-1,-1,-1,-1,-1,-1],"split_conditions":[1E0,7.1E1,7.6E1,7E1,1.415718E-1,1E0,8.1E1,2.9550847E-2,-0E0,-0E0,-9.272123E-2,-0E0,3.39418E-2],"split_indices":[6,0,0,0,0,9,0,0,0,0,0,0,0],"split_type":[0,0,0,0,0,0,0,0,0,0,0,0,0],"sum_hessian":[9.578788E1,4.279991E1,5.298797E1,4.646505E0,3.8153404E1,3.1765617E1,2.1222351E1,3.7173672E0,9.2913777E-1,1.467705E0,3.0297913E1,7.615555E0,1.3606796E1],"tree_param":{"num_deleted":"0","num_feature":"13","num_nodes":"13","size_leaf_vector":"1"}},{"base_weights":[3.1793746E-1,1.1864163E0,-4.13173E-1,1.3871185E-1,8.689819E-2,4.7738776E-1,-5.514896E-1,-6.947605E-3,6.2053174E-2,6.506554E-2,-0E0,-7.949543E-2,-0E0],"categories":[],"categories_nodes":[],"categories_segments":[],"categories_sizes":[],"default_left":[0,0,0,0,0,0,1,0,0,0,0,0,0],"id":5,"left_children":[1,3,5,-1,7,9,11,-1,-1,-1,-1,-1,-1],"loss_changes":[6.2201515E1,8.707123E-1,6.6859055E0,0E0,1.4403609E0,5.763304E-1,3.6968937E0,0E0,0E0,0E0,0E0,0E0,0E0],"parents":[2147483647,0,0,1,1,2,2,4,4,5,5,6,6],"right_children":[2,4,6,-1,8,10,12,-1,-1,-1,-1,-1,-1],"split_conditions":[1E0,1E0,1E0,1.3871185E-1,1E0,1E0,2E0,-6.947605E-3,6.2053174E-2,6.506554E-2,-0E0,-7.949543E-2,-0E0],"split_indices":[7,3,9,0,4,3,4,0,0,0,0,0,0],"split_type":[0,0,0,0,0,0,0,0,0,0,0,0,0],"sum_hessian":[9.375464E1,4.3817303E1,4.9937336E1,3.919231E1,4.6249948E0,4.43988E0,4.5497456E1,9.9032176E-1,3.634673E0,4.1905913E0,2.4928862E-1,3.3155712E1,1.2341743E1],"tree_param":{"num_deleted":"0","num_feature":"13","num_nodes":"13","size_leaf_vector":"1"}},{"base_weights":[2.697526E-1,1.109584E0,-3.7469468E-1,1.3267957E-1,1.3264404E-1,-7.381728E-1,9.096202E-2,-0E0,2.9684937E-2,-9.690251E-2,-5.419092E-3,4.63486E-2,-0E0],"categories":[],"categories_nodes":[],"categories_segments":[],"categories_sizes":[],"default_left":[0,0,0,0,0,1,0,0,0,0,0,0,0],"id":6,"left_children":[1,3,5,7,-1,9,11,-1,-1,-1,-1,-1,-1],"loss_changes":[5.2033722E1,1.0969238E0,1.0133564E1,1.4616817E-1,0E0,1.2068253E0,5.6217027E-1,0E0,0E0,0E0,0E0,0E0,0E0],"parents":[2147483647,0,0,1,1,2,2,3,3,5,5,6,6],"right_children":[2,4,6,8,-1,10,12,-1,-1,-1,-1,-1,-1],"split_conditions":[1E0,1E0,7.6E1,8.4E1,1.3264404E-1,2E0,1E0,-0E0,2.9684937E-2,-9.690251E-2,-5.419092E-3,4.63486E-2,-0E0],"split_indices":[7,4,0,0,0,4,11,0,0,0,0,0,0],"split_type":[0,0,0,0,0,0,0,0,0,0,0,0,0],"sum_hessian":[9.165648E1,4.082969E1,5.0826794E1,5.7396626E0,3.5090023E1,3.0628698E1,2.0198093E1,3.1034334E0,2.6362293E0,2.273546E1,7.8932385E0,3.1544404E0,1.7043653E1],"tree_param":{"num_deleted":"0","num_feature":"13","num_nodes":"13","size_leaf_vector":"1"}},{"base_weights":[2.3776138E-1,9.9041265E-1,-2.7427134E-1,1.3460352E-1,1.2049583E-1,-6.387761E-1,1.3342305E-1,1.645107E-2,-0E0,-0E0,-7.967508E-2,4.3984223E-2,-7.328267E-2],"categories":[],"categories_nodes":[],"categories_segments":[],"categories_sizes":[],"default_left":[0,0,0,0,0,0,0,0,0,0,0,0,0],"id":7,"left_children":[1,3,5,7,-1,9,11,-1,-1,-1,-1,-1,-1],"loss_changes":[3.57905E1,7.721443E-1,8.799729E0,1.6318306E-2,0E0,2.6287613E0,4.571495E0,0E0,0E0,0E0,0E0,0E0,0E0],"parents":[2147483647,0,0,1,1,2,2,3,3,5,5,6,6],"right_children":[2,4,6,8,-1,10,12,-1,-1,-1,-1,-1,-1],"split_conditions":[1E0,7.4E1,7.6E1,1E0,1.2049583E-1,1E0,1E0,1.645107E-2,-0E0,-0E0,-7.967508E-2,4.3984223E-2,-7.328267E-2],"split_indices":[6,0,0,3,0,9,3,0,0,0,0,0,0],"split_type":[0,0,0,0,0,0,0,0,0,0,0,0,0],"sum_hessian":[8.744878E1,3.6608555E1,5.084022E1,6.331773E0,3.0276783E1,2.913263E1,2.1707592E1,5.668654E0,6.631186E-1,1.6864846E0,2.7446144E1,1.8533428E1,3.174164E0],"tree_param":{"num_deleted":"0","num_feature":"13","num_nodes":"13","size_leaf_vector":"1"}},{"base_weights":[2.0731616E-1,9.830633E-1,-3.5257798E-1,1.2531944E-1,1.1782635E-1,-6.4624405E-1,-0E0,4.8685644E-2,-0E0,-0E0,-8.0596626E-2,4.402946E-2,-4.446511E-3],"categories":[],"categories_nodes":[],"categories_segments":[],"categories_sizes":[],"default_left":[0,0,0,0,0,0,0,0,0,0,0,0,0],"id":8,"left_children":[1,3,5,7,-1,9,11,-1,-1,-1,-1,-1,-1],"loss_changes":[3.9056896E1,3.367386E-1,5.6566005E0,7.9969025E-1,0E0,2.3032408E0,6.8008E-1,0E0,0E0,0E0,0E0,0E0,0E0],"parents":[2147483647,0,0,1,1,2,2,3,3,5,5,6,6],"right_children":[2,4,6,8,-1,10,12,-1,-1,-1,-1,-1,-1],"split_conditions":[1E0,1E0,7.5E1,1E0,1.1782635E-1,1E0,1E0,4.8685644E-2,-0E0,-0E0,-8.0596626E-2,4.402946E-2,-4.446511E-3],"split_indices":[7,4,0,6,0,9,11,0,0,0,0,0,0],"split_type":[0,0,0,0,0,0,0,0,0,0,0,0,0],"sum_hessian":[8.522195E1,3.6905193E1,4.831675E1,5.777165E0,3.1128029E1,2.7223999E1,2.109275E1,3.6256402E0,2.1515248E0,1.9771558E0,2.5246843E1,3.050606E0,1.8042145E1],"tree_param":{"num_deleted":"0","num_feature":"13","num_nodes":"13","size_leaf_vector":"1"}},{"base_weights":[2.1014348E-1,9.3160856E-1,-2.9994416E-1,-0E0,1.072799E-1,4.2811674E-1,-4.3604666E-1,5.823148E-2,-0E0,-7.061868E-2,-4.6327026E-3],"categories":[],"categories_nodes":[],"categories_segments":[],"categories_sizes":[],"default_left":[0,0,0,0,0,0,0,0,0,0,0],"id":9,"left_children":[1,3,5,-1,-1,7,9,-1,-1,-1,-1],"loss_changes":[3.159459E1,2.6328087E-1,4.856888E0,0E0,0E0,4.7287977E-1,2.0431175E0,0E0,0E0,0E0,0E0],"parents":[2147483647,0,0,1,1,2,2,5,5,6,6],"right_children":[2,4,6,-1,-1,8,10,-1,-1,-1,-1],"split_conditions":[1E0,1E0,1E0,-0E0,1.072799E-1,1.4E1,7.5E1,5.823148E-2,-0E0,-7.061868E-2,-4.6327026E-3],"split_indices":[7,5,9,0,0,2,0,0,0,0,0],"split_type":[0,0,0,0,0,0,0,0,0,0,0],"sum_hessian":[8.066027E1,3.4689774E1,4.5970497E1,2.847348E0,3.1842426E1,4.5878882E0,4.138261E1,4.3420258E0,2.4586263E-1,2.342805E1,1.7954561E1],"tree_param":{"num_deleted":"0","num_feature":"13","num_nodes":"11","size_leaf_vector":"1"}},{"base_weights":[2.0371358E-1,8.7421626E-1,-2.2928905E-1,1.0648911E-1,-0E0,-0E0,-7.762688E-1,-7.1828864E-3,1.5521871E-2,-3.375971E-2,2.5770446E-2,-0E0,-9.056273E-2],"categories":[],"categories_nodes":[],"categories_segments":[],"categories_sizes":[],"default_left":[0,0,0,0,0,0,0,0,0,0,0,0,0],"id":10,"left_children":[1,3,5,-1,7,9,11,-1,-1,-1,-1,-1,-1],"loss_changes":[2.4486628E1,2.347826E0,4.657499E0,0E0,8.046991E-2,2.796636E0,7.3335314E-1,0E0,0E0,0E0,0E0,0E0,0E0],"parents":[2147483647,0,0,1,1,2,2,4,4,5,5,6,6],"right_children":[2,4,6,-1,8,10,12,-1,-1,-1,-1,-1,-1],"split_conditions":[1E0,1E0,1E0,1.0648911E-1,1E0,7.5E1,1E0,-7.1828864E-3,1.5521871E-2,-3.375971E-2,2.5770446E-2,-0E0,-9.056273E-2],"split_indices":[7,3,3,0,4,0,8,0,0,0,0,0,0],"split_type":[0,0,0,0,0,0,0,0,0,0,0,0,0],"sum_hessian":[7.82077E1,3.210037E1,4.610733E1,2.8497845E1,3.6025233E0,3.526834E1,1.083899E1,9.8654425E-1,2.6159792E0,1.8110098E1,1.7158243E1,2.319852E-1,1.0607005E1],"tree_param":{"num_deleted":"0","num_feature":"13","num_nodes":"13","size_leaf_vector":"1"}},{"base_weights":[1.8703182E-1,8.476316E-1,-2.4394102E-1,-0E0,1.0402501E-1,-6.109401E-1,-0E0,3.2900844E-2,-0E0,-9.242385E-2,-0E0,-1.6878022E-2,2.1418279E-2],"categories":[],"categories_nodes":[],"categories_segments":[],"categories_sizes":[],"default_left":[0,0,0,0,0,1,0,0,0,0,0,0,0],"id":11,"left_children":[1,3,5,7,-1,9,11,-1,-1,-1,-1,-1,-1],"loss_changes":[2.373373E1,1.0320015E0,4.2174087E0,3.8019413E-1,0E0,3.002543E0,8.914736E-1,0E0,0E0,0E0,0E0,0E0,0E0],"parents":[2147483647,0,0,1,1,2,2,3,3,5,5,6,6],"right_children":[2,4,6,8,-1,10,12,-1,-1,-1,-1,-1,-1],"split_conditions":[1E0,1E0,7.2E1,1E0,1.0402501E-1,2E0,1E0,3.2900844E-2,-0E0,-9.242385E-2,-0E0,-1.6878022E-2,2.1418279E-2],"split_indices":[7,4,0,6,0,4,1,0,0,0,0,0,0],"split_type":[0,0,0,0,0,0,0,0,0,0,0,0,0],"sum_hessian":[7.739668E1,3.200814E1,4.538854E1,5.335913E0,2.6672226E1,1.7694988E1,2.7693552E1,3.2498803E0,2.0860329E0,1.3137266E1,4.557721E0,1.5304065E1,1.2389488E1],"tree_param":{"num_deleted":"0","num_feature":"13","num_nodes":"13","size_leaf_vector":"1"}},{"base_weights":[1.3518207E-1,7.866185E-1,-2.3304701E-1,-0E0,9.878604E-2,-0E0,-1.0149422E-1,-2.2187553E-2,3.285409E-2],"categories":[],"categories_nodes":[],"categories_segments":[],"categories_sizes":[],"default_left":[0,0,0,0,0,0,0,0,0],"id":12,"left_children":[1,3,5,-1,-1,7,-1,-1,-1],"loss_changes":[1.9758331E1,1.1104622E0,7.7610235E0,0E0,0E0,2.2832594E0,0E0,0E0,0E0],"parents":[2147483647,0,0,1,1,2,2,5,5],"right_children":[2,4,6,-1,-1,8,-1,-1,-1],"split_conditions":[1E0,7.4E1,1E0,-0E0,9.878604E-2,7.9E1,-1.0149422E-1,-2.2187553E-2,3.285409E-2],"split_indices":[6,0,3,0,0,0,0,0,0],"split_type":[0,0,0,0,0,0,0,0,0],"sum_hessian":[7.598864E1,2.8992682E1,4.699596E1,5.6046743E0,2.3388006E1,3.581767E1,1.1178288E1,2.1470692E1,1.4346979E1],"tree_param":{"num_deleted":"0","num_feature":"13","num_nodes":"9","size_leaf_vector":"1"}},{"base_weights":[1.5985864E-1,8.259474E-2,-1.7253974E-1,-0E0,-8.3612317E-1,-1.5112261E-2,3.6730748E-2,-0E0,-9.599215E-2],"categories":[],"categories_nodes":[],"categories_segments":[],"categories_sizes":[],"default_left":[0,0,0,1,0,0,0,0,0],"id":13,"left_children":[1,-1,3,5,7,-1,-1,-1,-1],"loss_changes":[1.5842044E1,0E0,6.591663E0,1.992202E0,1.3776779E-2,0E0,0E0,0E0,0E0],"parents":[2147483647,0,0,2,2,3,3,4,4],"right_children":[2,-1,4,6,8,-1,-1,-1,-1],"split_conditions":[1E0,8.259474E-2,1E0,2E0,1E0,-1.5112261E-2,3.6730748E-2,-0E0,-9.599215E-2],"split_indices":[6,0,3,4,9,0,0,0,0],"split_type":[0,0,0,0,0,0,0,0,0],"sum_hessian":[7.309505E1,2.8024889E1,4.5070156E1,3.4679585E1,1.039057E1,2.164568E1,1.3033907E1,9.1565317E-1,9.474916E0],"tree_param":{"num_deleted":"0","num_feature":"13","num_nodes":"9","size_leaf_vector":"1"}},{"base_weights":[1.4372891E-1,-2.5955153E-1,5.661968E-1,-0E0,-8.4183544E-2,-0E0,6.2951356E-1,-4.3746658E-2,1.5524483E-2,7.628269E-2,-0E0],"categories":[],"categories_nodes":[],"categories_segments":[],"categories_sizes":[],"default_left":[1,0,0,0,0,0,0,0,0,0,0],"id":14,"left_children":[1,3,5,7,-1,-1,9,-1,-1,-1,-1],"loss_changes":[1.2987685E1,3.2502363E0,1.865035E0,1.988215E0,0E0,0E0,7.285948E-1,0E0,0E0,0E0,0E0],"parents":[2147483647,0,0,1,1,2,2,3,3,6,6],"right_children":[2,4,6,8,-1,-1,10,-1,-1,-1,-1],"split_conditions":[2E0,1E0,6.7E1,7.3E1,-8.4183544E-2,-0E0,1E0,-4.3746658E-2,1.5524483E-2,7.628269E-2,-0E0],"split_indices":[4,3,0,0,0,0,3,0,0,0,0],"split_type":[0,0,0,0,0,0,0,0,0,0,0],"sum_hessian":[7.0768616E1,3.3981766E1,3.678685E1,2.540872E1,8.573045E0,2.512694E0,3.427416E1,9.432837E0,1.59758835E1,2.958202E1,4.692138E0],"tree_param":{"num_deleted":"0","num_feature":"13","num_nodes":"11","size_leaf_vector":"1"}},{"base_weights":[1.3196485E-1,8.5108787E-1,-9.316764E-2,9.407238E-1,-0E0,-3.6942062E-1,2.1961866E-1,-0E0,1.0634679E-1,-6.0359776E-2,-0E0,-0E0,3.433364E-2],"categories":[],"categories_nodes":[],"categories_segments":[],"categories_sizes":[],"default_left":[0,0,1,0,0,0,0,0,0,0,0,0,0],"id":15,"left_children":[1,3,5,7,-1,9,11,-1,-1,-1,-1,-1,-1],"loss_changes":[1.30895E1,9.580002E-1,4.947698E0,3.8502026E-1,0E0,1.9848533E0,9.279448E-1,0E0,0E0,0E0,0E0,0E0,0E0],"parents":[2147483647,0,0,1,1,2,2,3,3,5,5,6,6],"right_children":[2,4,6,8,-1,10,12,-1,-1,-1,-1,-1,-1],"split_conditions":[1E0,1E0,2E0,6.5E1,-0E0,7.7E1,6.7E1,-0E0,1.0634679E-1,-6.0359776E-2,-0E0,-0E0,3.433364E-2],"split_indices":[9,3,4,0,0,0,0,0,0,0,0,0,0],"split_type":[0,0,0,0,0,0,0,0,0,0,0,0,0],"sum_hessian":[6.99976E1,1.8144218E1,5.185338E1,1.5752288E1,2.3919308E0,3.0833923E1,2.1019455E1,4.791991E-1,1.5273088E1,2.0020563E1,1.0813359E1,1.5927811E0,1.9426674E1],"tree_param":{"num_deleted":"0","num_feature":"13","num_nodes":"13","size_leaf_vector":"1"}},{"base_weights":[8.761035E-2,7.1694994E-1,-2.3924813E-1,-0E0,8.750739E-2,-4.3365797E-1,-0E0,1.7967865E-2,-0E0,-0E0,-5.9644073E-2,1.8257996E-3,-0E0],"categories":[],"categories_nodes":[],"categories_segments":[],"categories_sizes":[],"default_left":[0,0,0,0,0,0,0,0,0,0,0,0,0],"id":16,"left_children":[1,3,5,7,-1,9,11,-1,-1,-1,-1,-1,-1],"loss_changes":[1.5199267E1,3.5102177E-1,2.137396E0,1.03359945E-1,0E0,1.495225E0,5.9242174E-4,0E0,0E0,0E0,0E0,0E0,0E0],"parents":[2147483647,0,0,1,1,2,2,3,3,5,5,6,6],"right_children":[2,4,6,8,-1,10,12,-1,-1,-1,-1,-1,-1],"split_conditions":[1E0,1E0,1E0,1E0,8.750739E-2,1E0,1E0,1.7967865E-2,-0E0,-0E0,-5.9644073E-2,1.8257996E-3,-0E0],"split_indices":[7,4,1,6,0,6,9,0,0,0,0,0,0],"split_type":[0,0,0,0,0,0,0,0,0,0,0,0,0],"sum_hessian":[6.741028E1,2.4726604E1,4.2683678E1,4.2762833E0,2.0450321E1,2.3661564E1,1.9022114E1,2.873867E0,1.4024159E0,3.8009086E0,1.9860655E1,1.1503551E0,1.787176E1],"tree_param":{"num_deleted":"0","num_feature":"13","num_nodes":"13","size_leaf_vector":"1"}},{"base_weights":[7.661806E-2,7.8610754E-1,-1.2509754E-1,8.904673E-1,-0E0,-3.826478E-1,1.4489217E-1,-0E0,1.0077966E-1,-5.2934065E-2,-0E0,-0E0,2.600733E-2],"categories":[],"categories_nodes":[],"categories_segments":[],"categories_sizes":[],"default_left":[0,0,1,0,0,0,0,0,0,0,0,0,0],"id":17,"left_children":[1,3,5,7,-1,9,11,-1,-1,-1,-1,-1,-1],"loss_changes":[1.1114025E1,1.4821224E0,4.105579E0,3.1470203E-1,0E0,9.321623E-1,6.800863E-1,0E0,0E0,0E0,0E0,0E0,0E0],"parents":[2147483647,0,0,1,1,2,2,3,3,5,5,6,6],"right_children":[2,4,6,8,-1,10,12,-1,-1,-1,-1,-1,-1],"split_conditions":[1E0,1E0,2E0,6.5E1,-0E0,8.1E1,6.7E1,-0E0,1.0077966E-1,-5.2934065E-2,-0E0,-0E0,2.600733E-2],"split_indices":[9,3,4,0,0,0,0,0,0,0,0,0,0],"split_type":[0,0,0,0,0,0,0,0,0,0,0,0,0],"sum_hessian":[6.673335E1,1.6326475E1,5.040688E1,1.4372415E1,1.95406E0,2.9375366E1,2.1031511E1,4.7579145E-1,1.3896624E1,2.2231283E1,7.1440825E0,1.5909894E0,1.9440523E1],"tree_param":{"num_deleted":"0","num_feature":"13","num_nodes":"13","size_leaf_vector":"1"}},{"base_weights":[6.1836142E-2,6.1863226E-1,-1.9012739E-1,7.805189E-2,-0E0,2.2481222E-1,-2.914769E-1,-0E0,5.4137944E-3,-0E0,3.7551884E-2,-3.8412776E-2,-0E0],"categories":[],"categories_nodes":[],"categories_segments":[],"categories_sizes":[],"default_left":[0,0,0,0,0,0,0,0,0,0,0,0,0],"id":18,"left_children":[1,3,5,-1,7,9,11,-1,-1,-1,-1,-1,-1],"loss_changes":[1.0201927E1,1.0503578E0,2.031279E0,0E0,8.491228E-3,1.7740005E-1,1.1098213E0,0E0,0E0,0E0,0E0,0E0,0E0],"parents":[2147483647,0,0,1,1,2,2,4,4,5,5,6,6],"right_children":[2,4,6,-1,8,10,12,-1,-1,-1,-1,-1,-1],"split_conditions":[1E0,1E0,1E0,7.805189E-2,1E0,7.2E1,8.5E1,-0E0,5.4137944E-3,-0E0,3.7551884E-2,-3.8412776E-2,-0E0],"split_indices":[7,3,9,0,4,0,0,0,0,0,0,0,0],"split_type":[0,0,0,0,0,0,0,0,0,0,0,0,0],"sum_hessian":[6.477195E1,2.2198809E1,4.2573143E1,1.872014E1,3.4786685E0,4.2443366E0,3.8328808E1,9.731492E-1,2.5055194E0,1.4477988E0,2.7965379E0,3.5501114E1,2.8276925E0],"tree_param":{"num_deleted":"0","num_feature":"13","num_nodes":"13","size_leaf_vector":"1"}},{"base_weights":[5.84048E-2,5.990244E-1,-1.8542722E-1,-0E0,7.704014E-2,-3.7764367E-1,-0E0,4.751599E-3,-0E0,-0E0,-4.402625E-2,6.294286E-3,-0E0],"categories":[],"categories_nodes":[],"categories_segments":[],"categories_sizes":[],"default_left":[0,0,0,0,0,0,0,0,0,0,0,0,0],"id":19,"left_children":[1,3,5,7,-1,9,11,-1,-1,-1,-1,-1,-1],"loss_changes":[9.415154E0,7.6546E-1,1.7514583E0,6.5974253E-3,0E0,3.5727E-1,1.0262088E-2,0E0,0E0,0E0,0E0,0E0,0E0],"parents":[2147483647,0,0,1,1,2,2,3,3,5,5,6,6],"right_children":[2,4,6,8,-1,10,12,-1,-1,-1,-1,-1,-1],"split_conditions":[1E0,1E0,7.5E1,1E0,7.704014E-2,6E1,1E0,4.751599E-3,-0E0,-0E0,-4.402625E-2,6.294286E-3,-0E0],"split_indices":[7,4,0,6,0,0,9,0,0,0,0,0,0],"split_type":[0,0,0,0,0,0,0,0,0,0,0,0,0],"sum_hessian":[6.3306328E1,2.177434E1,4.1531986E1,4.5533795E0,1.722096E1,2.153516E1,1.9996824E1,2.5357394E0,2.0176399E0,2.4229231E-1,2.1292868E1,2.1342103E0,1.7862616E1],"tree_param":{"num_deleted":"0","num_feature":"13","num_nodes":"13","size_leaf_vector":"1"}},{"base_weights":[9.838302E-2,5.7446057E-1,-1.0425858E-1,-0E0,7.4105315E-2,-3.4914476E-1,-0E0,4.3864646E-3,-0E0,-5.433815E-2,-0E0,2.7542122E-2,-0E0],"categories":[],"categories_nodes":[],"categories_segments":[],"categories_sizes":[],"default_left":[0,0,0,0,0,1,0,0,0,0,0,0,0],"id":20,"left_children":[1,3,5,7,-1,9,11,-1,-1,-1,-1,-1,-1],"loss_changes":[7.1417255E0,6.7464113E-1,1.7244874E0,5.610677E-3,0E0,8.374722E-1,2.2234175E-1,0E0,0E0,0E0,0E0,0E0,0E0],"parents":[2147483647,0,0,1,1,2,2,3,3,5,5,6,6],"right_children":[2,4,6,8,-1,10,12,-1,-1,-1,-1,-1,-1],"split_conditions":[1E0,1E0,7.3E1,1E0,7.4105315E-2,2E0,1E0,4.3864646E-3,-0E0,-5.433815E-2,-0E0,2.7542122E-2,-0E0],"split_indices":[7,4,0,6,0,4,9,0,0,0,0,0,0],"split_type":[0,0,0,0,0,0,0,0,0,0,0,0,0],"sum_hessian":[6.2659485E1,2.1106815E1,4.155267E1,4.545987E0,1.656083E1,1.6940868E1,2.4611803E1,2.5283475E0,2.0176399E0,1.139451E1,5.546358E0,2.5465949E0,2.2065208E1],"tree_param":{"num_deleted":"0","num_feature":"13","num_nodes":"13","size_leaf_vector":"1"}},{"base_weights":[6.4756684E-2,6.6683275E-1,-8.010143E-2,8.5088834E-2,-0E0,-0E0,-4.6986675E-1,-1.1818011E-2,2.0974912E-2,-0E0,-6.599785E-2],"categories":[],"categories_nodes":[],"categories_segments":[],"categories_sizes":[],"default_left":[0,0,0,0,0,0,0,0,0,0,0],"id":21,"left_children":[1,3,5,-1,-1,7,9,-1,-1,-1,-1],"loss_changes":[6.532357E0,1.0236964E0,1.981717E0,0E0,0E0,8.86654E-1,1.03828E0,0E0,0E0,0E0,0E0],"parents":[2147483647,0,0,1,1,2,2,5,5,6,6],"right_children":[2,4,6,-1,-1,8,10,-1,-1,-1,-1],"split_conditions":[1E0,1E0,1E0,8.5088834E-2,-0E0,1E0,1E0,-1.1818011E-2,2.0974912E-2,-0E0,-6.599785E-2],"split_indices":[9,3,3,0,0,1,6,0,0,0,0],"split_type":[0,0,0,0,0,0,0,0,0,0,0],"sum_hessian":[5.9831776E1,1.358238E1,4.6249397E1,1.1547684E1,2.0346959E0,3.6900024E1,9.349373E0,2.0264818E1,1.6635206E1,1.1177695E0,8.231604E0],"tree_param":{"num_deleted":"0","num_feature":"13","num_nodes":"11","size_leaf_vector":"1"}},{"base_weights":[7.7310294E-2,5.381167E-1,-1.0318574E-1,6.828123E-2,-0E0,-3.1972194E-1,-0E0,-4.6918407E-2,-0E0,-9.5139304E-4,1.0877677E-2],"categories":[],"categories_nodes":[],"categories_segments":[],"categories_sizes":[],"default_left":[0,0,0,0,0,1,0,0,0,0,0],"id":22,"left_children":[1,3,5,-1,-1,7,9,-1,-1,-1,-1],"loss_changes":[5.8626914E0,8.7502813E-1,1.2483201E0,0E0,0E0,4.1605902E-1,1.19917765E-1,0E0,0E0,0E0,0E0],"parents":[2147483647,0,0,1,1,2,2,5,5,6,6],"right_children":[2,4,6,-1,-1,8,10,-1,-1,-1,-1],"split_conditions":[1E0,1E0,7.3E1,6.828123E-2,-0E0,2E0,1E0,-4.6918407E-2,-0E0,-9.5139304E-4,1.0877677E-2],"split_indices":[7,3,0,0,0,4,1,0,0,0,0],"split_type":[0,0,0,0,0,0,0,0,0,0,0],"sum_hessian":[5.8361332E1,1.8986935E1,3.9374397E1,1.6291344E1,2.6955912E0,1.5417174E1,2.3957222E1,1.0511418E1,4.905756E0,1.279979E1,1.1157432E1],"tree_param":{"num_deleted":"0","num_feature":"13","num_nodes":"11","size_leaf_vector":"1"}},{"base_weights":[7.153612E-2,6.437576E-1,-5.985293E-2,7.459997E-1,-0E0,1.3907248E-1,-1.7013353E-1,8.619544E-2,-0E0,-0E0,3.2230906E-2,-3.688544E-2,-0E0],"categories":[],"categories_nodes":[],"categories_segments":[],"categories_sizes":[],"default_left":[0,0,0,0,0,0,0,0,0,0,0,0,0],"id":23,"left_children":[1,3,5,7,-1,9,11,-1,-1,-1,-1,-1,-1],"loss_changes":[5.7280135E0,8.106117E-1,1.1164907E0,3.7361145E-1,0E0,6.010257E-1,1.2472731E0,0E0,0E0,0E0,0E0,0E0,0E0],"parents":[2147483647,0,0,1,1,2,2,3,3,5,5,6,6],"right_children":[2,4,6,8,-1,10,12,-1,-1,-1,-1,-1,-1],"split_conditions":[1E0,1E0,1E0,1.4E1,-0E0,3E0,1E0,8.619544E-2,-0E0,-0E0,3.2230906E-2,-3.688544E-2,-0E0],"split_indices":[9,3,7,2,0,2,1,0,0,0,0,0,0],"split_type":[0,0,0,0,0,0,0,0,0,0,0,0,0],"sum_hessian":[5.914173E1,1.3158143E1,4.598359E1,1.0999813E1,2.1583295E0,9.83909E0,3.61445E1,1.0484453E1,5.153604E-1,1.3966904E0,8.4424E0,1.9654715E1,1.6489784E1],"tree_param":{"num_deleted":"0","num_feature":"13","num_nodes":"13","size_leaf_vector":"1"}},{"base_weights":[4.5712464E-2,6.130506E-1,-7.8552686E-2,-0E0,8.136601E-2,-0E0,-4.8285714E-1,-7.0719486E-3,1.2834683E-2,-0E0,-7.332007E-2],"categories":[],"categories_nodes":[],"categories_segments":[],"categories_sizes":[],"default_left":[0,0,0,0,0,0,0,0,0,0,0],"id":24,"left_children":[1,3,5,-1,-1,7,9,-1,-1,-1,-1],"loss_changes":[5.334348E0,9.6466637E-1,2.0699015E0,0E0,0E0,3.545145E-1,1.5383756E0,0E0,0E0,0E0,0E0],"parents":[2147483647,0,0,1,1,2,2,5,5,6,6],"right_children":[2,4,6,-1,-1,8,10,-1,-1,-1,-1],"split_conditions":[1E0,7.2E1,1E0,-0E0,8.136601E-2,7.6E1,1E0,-7.0719486E-3,1.2834683E-2,-0E0,-7.332007E-2],"split_indices":[9,0,3,0,0,0,6,0,0,0,0],"split_type":[0,0,0,0,0,0,0,0,0,0,0],"sum_hessian":[5.8818073E1,1.2753339E1,4.606473E1,2.5431066E0,1.0210232E1,3.6941185E1,9.1235485E0,1.7524956E1,1.941623E1,1.3483193E0,7.7752295E0],"tree_param":{"num_deleted":"0","num_feature":"13","num_nodes":"11","size_leaf_vector":"1"}},{"base_weights":[5.809047E-3,4.4903034E-1,-1.5224788E-1,5.436347E-1,-0E0,-3.357739E-1,-0E0,-0E0,6.478976E-2,-0E0,-4.287105E-2,1.2693682E-2,-3.804026E-4],"categories":[],"categories_nodes":[],"categories_segments":[],"categories_sizes":[],"default_left":[0,0,0,0,0,0,0,0,0,0,0,0,0],"id":25,"left_children":[1,3,5,7,-1,9,11,-1,-1,-1,-1,-1,-1],"loss_changes":[4.665751E0,8.059094E-1,1.5153553E0,1.6928482E-1,0E0,4.6284342E-1,1.4474711E-1,0E0,0E0,0E0,0E0,0E0,0E0],"parents":[2147483647,0,0,1,1,2,2,3,3,5,5,6,6],"right_children":[2,4,6,8,-1,10,12,-1,-1,-1,-1,-1,-1],"split_conditions":[1E0,1E0,1E0,1E0,-0E0,1E0,1.4E1,-0E0,6.478976E-2,-0E0,-4.287105E-2,1.2693682E-2,-3.804026E-4],"split_indices":[7,3,1,5,0,9,2,0,0,0,0,0,0],"split_type":[0,0,0,0,0,0,0,0,0,0,0,0,0],"sum_hessian":[5.615321E1,1.7603216E1,3.8549995E1,1.441877E1,3.1844459E0,2.0571869E1,1.7978127E1,1.7956021E0,1.2623168E1,2.512992E0,1.8058876E1,9.861574E0,8.116551E0],"tree_param":{"num_deleted":"0","num_feature":"13","num_nodes":"13","size_leaf_vector":"1"}},{"base_weights":[1.2037614E-2,4.210499E-1,-1.21051945E-1,-0E0,5.7667818E-2,-0E0,-1.8533494E-1,-3.1986505E-2,-0E0],"categories":[],"categories_nodes":[],"categories_segments":[],"categories_sizes":[],"default_left":[0,0,0,0,0,0,0,0,0],"id":26,"left_children":[1,3,5,-1,-1,-1,7,-1,-1],"loss_changes":[3.766191E0,6.033094E-1,6.668718E-1,0E0,0E0,0E0,4.8052633E-1,0E0,0E0],"parents":[2147483647,0,0,1,1,2,2,6,6],"right_children":[2,4,6,-1,-1,-1,8,-1,-1],"split_conditions":[1E0,1E0,1E0,-0E0,5.7667818E-2,-0E0,1E0,-3.1986505E-2,-0E0],"split_indices":[7,4,9,0,0,0,1,0,0],"split_type":[0,0,0,0,0,0,0,0,0],"sum_hessian":[5.6228096E1,1.6962519E1,3.926558E1,4.180886E0,1.2781633E1,3.673396E0,3.5592182E1,1.9547539E1,1.6044645E1],"tree_param":{"num_deleted":"0","num_feature":"13","num_nodes":"9","size_leaf_vector":"1"}},{"base_weights":[4.6796754E-2,4.9165536E-2,-8.648622E-2,-0E0,-5.6476895E-2,-3.5136465E-3,2.0321226E-2],"categories":[],"categories_nodes":[],"categories_segments":[],"categories_sizes":[],"default_left":[0,0,0,1,0,0,0],"id":27,"left_children":[1,-1,3,5,-1,-1,-1],"loss_changes":[3.7575917E0,0E0,2.1916173E0,4.086753E-1,0E0,0E0,0E0],"parents":[2147483647,0,0,2,2,3,3],"right_children":[2,-1,4,6,-1,-1,-1],"split_conditions":[1E0,4.9165536E-2,1E0,2E0,-5.6476895E-2,-3.5136465E-3,2.0321226E-2],"split_indices":[6,0,3,4,0,0,0],"split_type":[0,0,0,0,0,0,0],"sum_hessian":[5.5210686E1,1.6955746E1,3.825494E1,2.9827106E1,8.427835E0,1.9464228E1,1.036288E1],"tree_param":{"num_deleted":"0","num_feature":"13","num_nodes":"7","size_leaf_vector":"1"}},{"base_weights":[5.2822083E-2,4.1179466E-1,-2.2601293E-2,-0E0,7.107268E-2,-2.650819E-1,2.77472E-2,-4.8753068E-2,-0E0,1.5748467E-2,-0E0],"categories":[],"categories_nodes":[],"categories_segments":[],"categories_sizes":[],"default_left":[0,0,0,0,0,0,0,0,0,0,0],"id":28,"left_children":[1,3,5,-1,-1,7,9,-1,-1,-1,-1],"loss_changes":[2.2886236E0,1.670471E0,9.9667233E-1,0E0,0E0,1.506916E0,2.630335E-1,0E0,0E0,0E0,0E0],"parents":[2147483647,0,0,1,1,2,2,5,5,6,6],"right_children":[2,4,6,-1,-1,8,10,-1,-1,-1,-1],"split_conditions":[1E0,7.5E1,2E0,-0E0,7.107268E-2,2E0,1E0,-4.8753068E-2,-0E0,1.5748467E-2,-0E0],"split_indices":[11,0,5,0,0,4,4,0,0,0,0],"split_type":[0,0,0,0,0,0,0,0,0,0,0],"sum_hessian":[5.4436157E1,1.3281403E1,4.1154755E1,4.478814E0,8.802588E0,1.31726885E1,2.7982065E1,1.1741161E1,1.4315264E0,1.2921376E1,1.5060689E1],"tree_param":{"num_deleted":"0","num_feature":"13","num_nodes":"11","size_leaf_vector":"1"}},{"base_weights":[4.312254E-2,-7.662993E-2,3.4477347E-1,-2.1694246E-1,-0E0,4.1577765E-1,-0E0,-6.0732152E-2,-0E0,5.3910535E-2,-0E0,4.9862165E-2,-0E0],"categories":[],"categories_nodes":[],"categories_segments":[],"categories_sizes":[],"default_left":[0,1,0,1,0,0,0,0,0,0,0,0,0],"id":29,"left_children":[1,3,5,7,9,11,-1,-1,-1,-1,-1,-1,-1],"loss_changes":[2.568925E0,8.112009E-1,5.9989405E-1,2.3149772E0,6.502636E-1,5.26623E-1,0E0,0E0,0E0,0E0,0E0,0E0,0E0],"parents":[2147483647,0,0,1,1,2,2,3,3,4,4,5,5],"right_children":[2,4,6,8,10,12,-1,-1,-1,-1,-1,-1,-1],"split_conditions":[8.1E1,2E0,1E0,2E0,1E0,4.00001E0,-0E0,-6.0732152E-2,-0E0,5.3910535E-2,-0E0,4.9862165E-2,-0E0],"split_indices":[0,4,3,5,5,4,0,0,0,0,0,0,0],"split_type":[0,0,0,0,0,0,0,0,0,0,0,0,0],"sum_hessian":[5.4537834E1,3.4827457E1,1.9710377E1,2.070628E1,1.4121178E1,1.6710945E1,2.9994304E0,9.945792E0,1.0760488E1,1.7072449E0,1.2413933E1,1.6463686E1,2.4726048E-1],"tree_param":{"num_deleted":"0","num_feature":"13","num_nodes":"13","size_leaf_vector":"1"}},{"base_weights":[6.11397E-2,4.5704195E-1,-5.7814945E-2,-0E0,6.914819E-2,-3.097219E-1,-0E0,-0E0,-4.5645352E-2,-1.6434824E-2,6.6317483E-3],"categories":[],"categories_nodes":[],"categories_segments":[],"categories_sizes":[],"default_left":[0,0,0,0,0,0,0,0,0,0,0],"id":30,"left_children":[1,3,5,-1,-1,7,9,-1,-1,-1,-1],"loss_changes":[3.3142302E0,1.6180198E0,4.8496166E-1,0E0,0E0,4.087227E-1,3.1801972E-1,0E0,0E0,0E0,0E0],"parents":[2147483647,0,0,1,1,2,2,5,5,6,6],"right_children":[2,4,6,-1,-1,8,10,-1,-1,-1,-1],"split_conditions":[1E0,7.4E1,6.7E1,-0E0,6.914819E-2,1E1,8E0,-0E0,-4.5645352E-2,-1.6434824E-2,6.6317483E-3],"split_indices":[6,0,0,0,0,2,2,0,0,0,0],"split_type":[0,0,0,0,0,0,0,0,0,0,0],"sum_hessian":[5.1858765E1,1.5209573E1,3.664919E1,3.5464582E0,1.1663115E1,5.367368E0,3.1281822E1,4.4641048E-1,4.9209576E0,9.544249E0,2.1737574E1],"tree_param":{"num_deleted":"0","num_feature":"13","num_nodes":"11","size_leaf_vector":"1"}},{"base_weights":[6.612744E-2,3.824781E-1,-1.3431258E-2,4.9663273E-1,-0E0,-2.0357904E-1,1.0861801E-1,-0E0,6.596577E-2,-0E0,-3.0528767E-2,2.5775481E-2,-0E0],"categories":[],"categories_nodes":[],"categories_segments":[],"categories_sizes":[],"default_left":[0,0,0,0,0,0,0,0,0,0,0,0,0],"id":31,"left_children":[1,3,5,7,-1,9,11,-1,-1,-1,-1,-1,-1],"loss_changes":[2.0751088E0,8.7374496E-1,1.0985314E0,3.821082E-1,0E0,6.971378E-1,3.3801508E-1,0E0,0E0,0E0,0E0,0E0,0E0],"parents":[2147483647,0,0,1,1,2,2,3,3,5,5,6,6],"right_children":[2,4,6,8,-1,10,12,-1,-1,-1,-1,-1,-1],"split_conditions":[1E0,1E0,1E0,3E0,-0E0,1E0,1.4E1,-0E0,6.596577E-2,-0E0,-3.0528767E-2,2.5775481E-2,-0E0],"split_indices":[7,3,1,2,0,8,2,0,0,0,0,0,0],"split_type":[0,0,0,0,0,0,0,0,0,0,0,0,0],"sum_hessian":[5.191856E1,1.4719667E1,3.7198895E1,1.186618E1,2.8534873E0,2.0687473E1,1.6511421E1,2.9796078E0,8.886572E0,9.674812E-1,1.9719992E1,8.918808E0,7.5926137E0],"tree_param":{"num_deleted":"0","num_feature":"13","num_nodes":"13","size_leaf_vector":"1"}},{"base_weights":[1.3690703E-2,5.2296907E-1,-6.498152E-2,6.135595E-2,-0E0,-2.9458395E-1,-0E0,-0E0,-4.5123786E-2,-3.5911854E-2,1.3052101E-2],"categories":[],"categories_nodes":[],"categories_segments":[],"categories_sizes":[],"default_left":[0,0,0,0,0,0,0,0,0,0,0],"id":32,"left_children":[1,3,5,-1,-1,7,9,-1,-1,-1,-1],"loss_changes":[3.0711198E0,2.6920605E-1,9.5858043E-1,0E0,0E0,8.472904E-1,1.0269604E0,0E0,0E0,0E0,0E0],"parents":[2147483647,0,0,1,1,2,2,5,5,6,6],"right_children":[2,4,6,-1,-1,8,10,-1,-1,-1,-1],"split_conditions":[1E0,1.4E1,8E0,6.135595E-2,-0E0,7E1,6.7E1,-0E0,-4.5123786E-2,-3.5911854E-2,1.3052101E-2],"split_indices":[9,2,2,0,0,0,0,0,0,0,0],"split_type":[0,0,0,0,0,0,0,0,0,0,0],"sum_hessian":[5.194161E1,9.596155E0,4.2345455E1,9.180056E0,4.1610014E-1,1.2155274E1,3.019018E1,1.3360896E0,1.0819185E1,5.202415E0,2.4987764E1],"tree_param":{"num_deleted":"0","num_feature":"13","num_nodes":"11","size_leaf_vector":"1"}},{"base_weights":[2.1528462E-2,1.6668439E-1,-3.8199627E-1,4.674136E-1,2.6942515E-3,-0E0,-5.793522E-1,-0E0,6.301102E-2,-2.3069996E-3,1.1552984E-2,-0E0,-7.334536E-2],"categories":[],"categories_nodes":[],"categories_segments":[],"categories_sizes":[],"default_left":[0,0,0,0,0,0,0,0,0,0,0,0,0],"id":33,"left_children":[1,3,5,7,9,-1,11,-1,-1,-1,-1,-1,-1],"loss_changes":[2.690698E0,1.165955E0,1.2755435E0,8.5530615E-1,2.50144E-1,0E0,1.9458461E-1,0E0,0E0,0E0,0E0,0E0,0E0],"parents":[2147483647,0,0,1,1,2,2,3,3,4,4,6,6],"right_children":[2,4,6,8,10,-1,12,-1,-1,-1,-1,-1,-1],"split_conditions":[1E0,1E0,1E0,6.7E1,8E0,-0E0,6.9E1,-0E0,6.301102E-2,-2.3069996E-3,1.1552984E-2,-0E0,-7.334536E-2],"split_indices":[3,11,6,0,2,0,0,0,0,0,0,0,0],"split_type":[0,0,0,0,0,0,0,0,0,0,0,0,0],"sum_hessian":[5.120146E1,4.1732647E1,9.468815E0,9.770024E0,3.1962622E1,2.1173372E0,7.3514776E0,9.9256027E-1,8.777464E0,1.0731656E1,2.1230967E1,1.6087538E0,5.742724E0],"tree_param":{"num_deleted":"0","num_feature":"13","num_nodes":"13","size_leaf_vector":"1"}},{"base_weights":[1.8352889E-2,-9.356755E-2,2.2923163E-1,-3.8827088E-1,-0E0,-0E0,2.9006782E-1,-0E0,-6.25893E-2,1.2155145E-2,-1.9940972E-2,-0E0,4.0024515E-2],"categories":[],"categories_nodes":[],"categories_segments":[],"categories_sizes":[],"default_left":[1,0,0,0,0,0,0,0,0,0,0,0,0],"id":34,"left_children":[1,3,5,7,9,-1,11,-1,-1,-1,-1,-1,-1],"loss_changes":[1.5141755E0,1.1916698E0,5.794356E-1,8.0308723E-1,3.4124383E-1,0E0,4.4125462E-1,0E0,0E0,0E0,0E0,0E0,0E0],"parents":[2147483647,0,0,1,1,2,2,3,3,4,4,6,6],"right_children":[2,4,6,8,10,-1,12,-1,-1,-1,-1,-1,-1],"split_conditions":[2E0,7.2E1,6.7E1,1.2E1,1E0,-0E0,4E0,-0E0,-6.25893E-2,1.2155145E-2,-1.9940972E-2,-0E0,4.0024515E-2],"split_indices":[4,0,0,2,3,0,2,0,0,0,0,0,0],"split_type":[0,0,0,0,0,0,0,0,0,0,0,0,0],"sum_hessian":[5.0750584E1,2.7322035E1,2.3428549E1,8.549487E0,1.8772547E1,2.285685E0,2.1142864E1,2.6222692E0,5.927218E0,1.5530936E1,3.2416115E0,4.7376285E0,1.6405235E1],"tree_param":{"num_deleted":"0","num_feature":"13","num_nodes":"13","size_leaf_vector":"1"}},{"base_weights":[-0E0,3.9023566E-1,-1.1073048E-1,-0E0,5.7865687E-2,-0E0,-1.6948184E-1,-0E0,4.896759E-3,-2.3309778E-2,-0E0],"categories":[],"categories_nodes":[],"categories_segments":[],"categories_sizes":[],"default_left":[0,0,0,0,0,0,0,0,0,0,0],"id":35,"left_children":[1,3,5,-1,-1,7,9,-1,-1,-1,-1],"loss_changes":[2.0815358E0,6.3359904E-1,4.765566E-1,0E0,0E0,1.443703E-2,4.4992828E-1,0E0,0E0,0E0,0E0],"parents":[2147483647,0,0,1,1,2,2,5,5,6,6],"right_children":[2,4,6,-1,-1,8,10,-1,-1,-1,-1],"split_conditions":[1E0,7.2E1,1E0,-0E0,5.7865687E-2,3E0,8.5E1,-0E0,4.896759E-3,-2.3309778E-2,-0E0],"split_indices":[9,0,7,0,0,2,0,0,0,0,0],"split_type":[0,0,0,0,0,0,0,0,0,0,0],"sum_hessian":[5.067525E1,9.253143E0,4.1422108E1,2.3212812E0,6.931862E0,7.7228656E0,3.3699245E1,1.4375936E0,6.285272E0,3.1215683E1,2.4835608E0],"tree_param":{"num_deleted":"0","num_feature":"13","num_nodes":"11","size_leaf_vector":"1"}},{"base_weights":[9.365962E-3,3.4165126E-1,-1.9498426E-2,-0E0,5.3035658E-2,-1.8967026E-1,-0E0,-0E0,-3.1743042E-2,-2.6679784E-2,1.3753953E-2],"categories":[],"categories_nodes":[],"categories_segments":[],"categories_sizes":[],"default_left":[0,0,0,0,0,0,0,0,0,0,0],"id":36,"left_children":[1,3,5,-1,-1,7,9,-1,-1,-1,-1],"loss_changes":[1.1433055E0,6.0757625E-1,4.752924E-1,0E0,0E0,5.360371E-1,7.3256564E-1,0E0,0E0,0E0,0E0],"parents":[2147483647,0,0,1,1,2,2,5,5,6,6],"right_children":[2,4,6,-1,-1,8,10,-1,-1,-1,-1],"split_conditions":[1E0,7.2E1,8E0,-0E0,5.3035658E-2,7E1,6.7E1,-0E0,-3.1743042E-2,-2.6679784E-2,1.3753953E-2],"split_indices":[9,0,2,0,0,0,0,0,0,0,0],"split_type":[0,0,0,0,0,0,0,0,0,0,0],"sum_hessian":[5.0332233E1,8.694518E0,4.1637714E1,2.2129517E0,6.481566E0,1.26624155E1,2.89753E1,1.3232158E0,1.13392E1,4.748527E0,2.4226774E1],"tree_param":{"num_deleted":"0","num_feature":"13","num_nodes":"11","size_leaf_vector":"1"}},{"base_weights":[1.8238862E-3,2.2449495E-1,-2.8752899E-2,-0E0,3.367741E-2,-1.4784308E-1,-0E0,-3.2233167E-2,-0E0,-8.314176E-3,1.5567652E-2],"categories":[],"categories_nodes":[],"categories_segments":[],"categories_sizes":[],"default_left":[0,0,0,0,0,0,0,0,0,0,0],"id":37,"left_children":[1,3,5,-1,-1,7,9,-1,-1,-1,-1],"loss_changes":[7.378462E-1,2.5721157E-1,4.1057205E-1,0E0,0E0,5.266354E-1,3.2688335E-1,0E0,0E0,0E0,0E0],"parents":[2147483647,0,0,1,1,2,2,5,5,6,6],"right_children":[2,4,6,-1,-1,8,10,-1,-1,-1,-1],"split_conditions":[1E0,1E0,1E0,-0E0,3.367741E-2,7.5E1,6.7E1,-3.2233167E-2,-0E0,-8.314176E-3,1.5567652E-2],"split_indices":[7,4,1,0,0,0,0,0,0,0,0],"split_type":[0,0,0,0,0,0,0,0,0,0,0],"sum_hessian":[4.8923466E1,1.3038627E1,3.5884842E1,3.7462947E0,9.292332E0,1.9179083E1,1.6705757E1,1.0269917E1,8.909165E0,2.3371663E0,1.4368591E1],"tree_param":{"num_deleted":"0","num_feature":"13","num_nodes":"11","size_leaf_vector":"1"}},{"base_weights":[-0E0,3.62956E-2,-4.9530197E-2,-1.4045455E-1,-0E0,-0E0,-2.2795945E-2],"categories":[],"categories_nodes":[],"categories_segments":[],"categories_sizes":[],"default_left":[0,0,0,0,0,0,0],"id":38,"left_children":[1,-1,3,5,-1,-1,-1],"loss_changes":[1.146146E0,0E0,3.6166316E-1,3.2790712E-1,0E0,0E0,0E0],"parents":[2147483647,0,0,2,2,3,3],"right_children":[2,-1,4,6,-1,-1,-1],"split_conditions":[1E0,3.62956E-2,1E0,1E0,-0E0,-0E0,-2.2795945E-2],"split_indices":[9,0,1,7,0,0,0],"split_type":[0,0,0,0,0,0,0],"sum_hessian":[4.995738E1,8.572251E0,4.1385128E1,2.2603832E1,1.8781296E1,5.1262527E0,1.7477581E1],"tree_param":{"num_deleted":"0","num_feature":"13","num_nodes":"7","size_leaf_vector":"1"}},{"base_weights":[3.143236E-2,1.5642E-1,-2.7577803E-1,-0E0,2.2388592E-1,-0E0,-4.4187114E-2,2.694948E-2,-0E0],"categories":[],"categories_nodes":[],"categories_segments":[],"categories_sizes":[],"default_left":[0,0,0,0,0,0,0,0,0],"id":39,"left_children":[1,3,5,-1,7,-1,-1,-1,-1],"loss_changes":[1.7389052E0,8.067075E-1,5.757877E-1,0E0,3.359648E-1,0E0,0E0,0E0,0E0],"parents":[2147483647,0,0,1,1,2,2,4,4],"right_children":[2,4,6,-1,8,-1,-1,-1,-1],"split_conditions":[1E0,3E0,1E0,-0E0,4.00001E0,-0E0,-4.4187114E-2,2.694948E-2,-0E0],"split_indices":[3,2,6,0,4,0,0,0,0],"split_type":[0,0,0,0,0,0,0,0,0],"sum_hessian":[4.9380463E1,4.0076492E1,9.303969E0,4.932087E0,3.5144405E1,1.8792694E0,7.4247003E0,3.4781467E1,3.6293772E-1],"tree_param":{"num_deleted":"0","num_feature":"13","num_nodes":"9","size_leaf_vector":"1"}},{"base_weights":[2.5039837E-2,-2.2992676E-2,2.226891E-1,-2.2642018E-1,-0E0,3.0042508E-1,-0E0,-0E0,-3.0765342E-2,4.875151E-2,-3.7590296E-3,3.7632402E-2,-0E0],"categories":[],"categories_nodes":[],"categories_segments":[],"categories_sizes":[],"default_left":[0,0,0,0,0,0,0,0,0,0,0,0,0],"id":40,"left_children":[1,3,5,7,9,11,-1,-1,-1,-1,-1,-1,-1],"loss_changes":[8.8019526E-1,3.1362396E-1,4.6299213E-1,1.5465537E-1,7.2049326E-1,3.7370992E-1,0E0,0E0,0E0,0E0,0E0,0E0,0E0],"parents":[2147483647,0,0,1,1,2,2,3,3,4,4,5,5],"right_children":[2,4,6,8,10,12,-1,-1,-1,-1,-1,-1,-1],"split_conditions":[8.1E1,6.7E1,1E0,1E0,6.9E1,4.00001E0,-0E0,-0E0,-3.0765342E-2,4.875151E-2,-3.7590296E-3,3.7632402E-2,-0E0],"split_indices":[0,0,3,7,0,4,0,0,0,0,0,0,0],"split_type":[0,0,0,0,0,0,0,0,0,0,0,0,0],"sum_hessian":[4.9105614E1,3.2075417E1,1.7030197E1,5.458649E0,2.6616766E1,1.4036442E1,2.9937556E0,2.4869832E-1,5.2099504E0,2.5188677E0,2.4097898E1,1.3788198E1,2.4824382E-1],"tree_param":{"num_deleted":"0","num_feature":"13","num_nodes":"13","size_leaf_vector":"1"}},{"base_weights":[-0E0,5.245784E-2,-1.9153844E-1,-0E0,1.9749789E-1,-3.703901E-2,-0E0,-0E0,-7.65327E-3,2.6278017E-2,-0E0],"categories":[],"categories_nodes":[],"categories_segments":[],"categories_sizes":[],"default_left":[0,0,0,0,0,0,0,0,0,0,0],"id":41,"left_children":[1,3,5,7,9,-1,-1,-1,-1,-1,-1],"loss_changes":[4.8185033E-1,4.577927E-1,3.5281146E-1,3.894763E-2,2.4819434E-1,0E0,0E0,0E0,0E0,0E0,0E0],"parents":[2147483647,0,0,1,1,2,2,3,3,4,4],"right_children":[2,4,6,8,10,-1,-1,-1,-1,-1,-1],"split_conditions":[1E0,8.1E1,2E0,1.4E1,4.00001E0,-3.703901E-2,-0E0,-0E0,-7.65327E-3,2.6278017E-2,-0E0],"split_indices":[3,0,4,2,4,0,0,0,0,0,0],"split_type":[0,0,0,0,0,0,0,0,0,0,0],"sum_hessian":[4.7684513E1,3.8514313E1,9.1702E0,2.4989943E1,1.3524371E1,5.4026318E0,3.767568E0,1.7944084E1,7.0458574E0,1.3276128E1,2.4824382E-1],"tree_param":{"num_deleted":"0","num_feature":"13","num_nodes":"11","size_leaf_vector":"1"}},{"base_weights":[-0E0,2.0583929E-1,-3.170961E-2,-0E0,3.8265504E-2,-0E0,-3.3560732E-1,-5.6744055E-3,1.0019392E-2,-0E0,-4.228515E-2],"categories":[],"categories_nodes":[],"categories_segments":[],"categories_sizes":[],"default_left":[0,0,0,0,0,0,0,0,0,0,0],"id":42,"left_children":[1,3,5,-1,-1,7,9,-1,-1,-1,-1],"loss_changes":[5.9404653E-1,6.2443733E-1,8.6097956E-1,0E0,0E0,2.0592666E-1,6.613237E-2,0E0,0E0,0E0,0E0],"parents":[2147483647,0,0,1,1,2,2,5,5,6,6],"right_children":[2,4,6,-1,-1,8,10,-1,-1,-1,-1],"split_conditions":[1E0,7.4E1,1E0,-0E0,3.8265504E-2,8E0,6.9E1,-5.6744055E-3,1.0019392E-2,-0E0,-4.228515E-2],"split_indices":[6,0,3,0,0,2,0,0,0,0,0],"split_type":[0,0,0,0,0,0,0,0,0,0,0],"sum_hessian":[4.835799E1,1.2137209E1,3.6220783E1,3.377387E0,8.759822E0,2.9244337E1,6.976445E0,8.45677E0,2.0787567E1,1.4492188E0,5.5272264E0],"tree_param":{"num_deleted":"0","num_feature":"13","num_nodes":"11","size_leaf_vector":"1"}},{"base_weights":[-0E0,2.7785614E-1,-1.0228285E-1,3.4159992E-2,-0E0,-0E0,-1.6266988E-1,-0E0,7.0557334E-3,-2.420858E-2,-0E0],"categories":[],"categories_nodes":[],"categories_segments":[],"categories_sizes":[],"default_left":[0,0,0,0,0,0,0,0,0,0,0],"id":43,"left_children":[1,3,5,-1,-1,7,9,-1,-1,-1,-1],"loss_changes":[1.1235757E0,1.399197E-1,4.5768613E-1,0E0,0E0,2.8123174E-2,5.07766E-3,0E0,0E0,0E0,0E0],"parents":[2147483647,0,0,1,1,2,2,5,5,6,6],"right_children":[2,4,6,-1,-1,8,10,-1,-1,-1,-1],"split_conditions":[1E0,1.4E1,1E0,3.4159992E-2,-0E0,3E0,1E0,-0E0,7.0557334E-3,-2.420858E-2,-0E0],"split_indices":[9,2,7,0,0,2,1,0,0,0,0],"split_type":[0,0,0,0,0,0,0,0,0,0,0],"sum_hessian":[4.7637924E1,8.053853E0,3.9584072E1,7.6989565E0,3.5489684E-1,7.2424974E0,3.234157E1,1.4070747E0,5.835423E0,1.7320591E1,1.5020981E1],"tree_param":{"num_deleted":"0","num_feature":"13","num_nodes":"11","size_leaf_vector":"1"}},{"base_weights":[-0E0,3.4429416E-1,-2.3779852E-2,4.3277764E-1,-0E0,-1.8013392E-1,-0E0,-0E0,6.5151796E-2,-0E0,-2.4040395E-2,5.0053173E-3,-0E0],"categories":[],"categories_nodes":[],"categories_segments":[],"categories_sizes":[],"default_left":[0,0,0,0,0,0,0,0,0,0,0,0,0],"id":44,"left_children":[1,3,5,7,-1,9,11,-1,-1,-1,-1,-1,-1],"loss_changes":[1.0113744E0,2.973826E-1,4.1310784E-1,5.306846E-1,0E0,1.3268313E-1,4.7257956E-2,0E0,0E0,0E0,0E0,0E0,0E0],"parents":[2147483647,0,0,1,1,2,2,3,3,5,5,6,6],"right_children":[2,4,6,8,-1,10,12,-1,-1,-1,-1,-1,-1],"split_conditions":[1E0,1E0,8E0,2E0,-0E0,1E0,1E0,-0E0,6.5151796E-2,-0E0,-2.4040395E-2,5.0053173E-3,-0E0],"split_indices":[9,3,2,2,0,11,3,0,0,0,0,0,0],"split_type":[0,0,0,0,0,0,0,0,0,0,0,0,0],"sum_hessian":[4.736747E1,7.3362975E0,4.003117E1,5.8637404E0,1.4725571E0,1.2446348E1,2.7584822E1,1.6864135E0,4.177327E0,1.5336728E0,1.0912676E1,2.182428E1,5.7605414E0],"tree_param":{"num_deleted":"0","num_feature":"13","num_nodes":"13","size_leaf_vector":"1"}},{"base_weights":[-0E0,9.319421E-2,-3.053714E-1,3.364114E-1,-0E0,-0E0,-4.996713E-2,-0E0,5.070951E-2,-6.8353997E-3,1.0378908E-2],"categories":[],"categories_nodes":[],"categories_segments":[],"categories_sizes":[],"default_left":[0,0,0,0,0,0,0,0,0,0,0],"id":45,"left_children":[1,3,5,7,9,-1,-1,-1,-1,-1,-1],"loss_changes":[1.2210557E0,4.253411E-1,6.706472E-1,3.1467497E-1,2.5345227E-1,0E0,0E0,0E0,0E0,0E0,0E0],"parents":[2147483647,0,0,1,1,2,2,3,3,4,4],"right_children":[2,4,6,8,10,-1,-1,-1,-1,-1,-1],"split_conditions":[1E0,1E0,1E0,2E0,8E0,-0E0,-4.996713E-2,-0E0,5.070951E-2,-6.8353997E-3,1.0378908E-2],"split_indices":[3,9,6,2,2,0,0,0,0,0,0],"split_type":[0,0,0,0,0,0,0,0,0,0,0],"sum_hessian":[4.7505623E1,3.915096E1,8.354663E0,5.8396277E0,3.331133E1,1.8767852E0,6.477878E0,1.7165828E0,4.123045E0,1.1082575E1,2.2228754E1],"tree_param":{"num_deleted":"0","num_feature":"13","num_nodes":"11","size_leaf_vector":"1"}},{"base_weights":[-0E0,-9.1345094E-2,9.662071E-2,-3.1361103E-1,-0E0,5.7683304E-2,-0E0,-0E0,-4.2172566E-2,4.328535E-3,-0E0,1.582418E-2,-6.6383122E-3],"categories":[],"categories_nodes":[],"categories_segments":[],"categories_sizes":[],"default_left":[1,1,0,0,0,0,0,0,0,0,0,0,0],"id":46,"left_children":[1,3,5,7,9,-1,11,-1,-1,-1,-1,-1,-1],"loss_changes":[4.280979E-1,1.0150889E0,6.3695526E-1,4.502157E-1,1.9371206E-2,0E0,2.2135337E-1,0E0,0E0,0E0,0E0,0E0,0E0],"parents":[2147483647,0,0,1,1,2,2,3,3,4,4,6,6],"right_children":[2,4,6,8,10,-1,12,-1,-1,-1,-1,-1,-1],"split_conditions":[2E0,2E0,1E0,1E0,1E0,5.7683304E-2,1E0,-0E0,-4.2172566E-2,4.328535E-3,-0E0,1.582418E-2,-6.6383122E-3],"split_indices":[4,5,5,6,3,0,7,0,0,0,0,0,0],"split_type":[0,0,0,0,0,0,0,0,0,0,0,0,0],"sum_hessian":[4.6721943E1,2.597439E1,2.0747551E1,1.160943E1,1.4364959E1,2.0546014E0,1.8692951E1,1.109139E0,1.0500292E1,1.1510082E1,2.854877E0,7.5611963E0,1.1131754E1],"tree_param":{"num_deleted":"0","num_feature":"13","num_nodes":"13","size_leaf_vector":"1"}},{"base_weights":[-0E0,1.7415558E-1,-3.981647E-2,2.1098642E-1,-0E0,-2.193239E-1,-0E0,-0E0,2.7436577E-2,-0E0,-2.7847106E-2,-0E0,3.1879602E-3],"categories":[],"categories_nodes":[],"categories_segments":[],"categories_sizes":[],"default_left":[0,0,0,0,0,0,0,0,0,0,0,0,0],"id":47,"left_children":[1,3,5,7,-1,9,11,-1,-1,-1,-1,-1,-1],"loss_changes":[3.118829E-1,1.01156175E-1,5.5480653E-1,2.0610094E-2,0E0,1.4755559E-1,8.2807895E-3,0E0,0E0,0E0,0E0,0E0,0E0],"parents":[2147483647,0,0,1,1,2,2,3,3,5,5,6,6],"right_children":[2,4,6,8,-1,10,12,-1,-1,-1,-1,-1,-1],"split_conditions":[1E0,1.4E1,8E0,2E0,-0E0,1E0,1E0,-0E0,2.7436577E-2,-0E0,-2.7847106E-2,-0E0,3.1879602E-3],"split_indices":[9,2,2,2,0,10,4,0,0,0,0,0,0],"split_type":[0,0,0,0,0,0,0,0,0,0,0,0,0],"sum_hessian":[4.562919E1,7.223184E0,3.8406006E1,6.875201E0,3.479831E-1,1.1832449E1,2.6573557E1,1.9088842E0,4.966317E0,8.982638E-1,1.0934185E1,1.7714592E1,8.858965E0],"tree_param":{"num_deleted":"0","num_feature":"13","num_nodes":"13","size_leaf_vector":"1"}},{"base_weights":[2.6638447E-3,1.0958433E-1,-2.2546671E-1,-0E0,1.5996902E-1,-0E0,-3.8911492E-1,-0E0,-1.2582306E-2,1.988289E-2,-0E0,-5.212902E-2,-0E0],"categories":[],"categories_nodes":[],"categories_segments":[],"categories_sizes":[],"default_left":[0,0,0,0,0,0,0,0,0,0,0,0,0],"id":48,"left_children":[1,3,5,7,9,-1,11,-1,-1,-1,-1,-1,-1],"loss_changes":[9.541715E-1,4.1575238E-1,6.4504004E-1,5.654284E-2,2.3309493E-1,0E0,7.858443E-2,0E0,0E0,0E0,0E0,0E0,0E0],"parents":[2147483647,0,0,1,1,2,2,3,3,4,4,6,6],"right_children":[2,4,6,8,10,-1,12,-1,-1,-1,-1,-1,-1],"split_conditions":[1E0,3E0,1E0,1E0,4.00001E0,-0E0,2E0,-0E0,-1.2582306E-2,1.988289E-2,-0E0,-5.212902E-2,-0E0],"split_indices":[3,2,6,8,4,0,4,0,0,0,0,0,0],"split_type":[0,0,0,0,0,0,0,0,0,0,0,0,0],"sum_hessian":[4.6607277E1,3.8057156E1,8.550119E0,4.4820843E0,3.3575073E1,2.083509E0,6.4666104E0,1.1605048E0,3.3215795E0,3.3215214E1,3.5985932E-1,4.383826E0,2.0827847E0],"tree_param":{"num_deleted":"0","num_feature":"13","num_nodes":"13","size_leaf_vector":"1"}},{"base_weights":[-0E0,3.6230076E-2,-2.829497E-1,-0E0,2.8465962E-1,-0E0,-4.376537E-2,-2.1397276E-2,3.6976597E-4,-0E0,4.7588617E-2],"categories":[],"categories_nodes":[],"categories_segments":[],"categories_sizes":[],"default_left":[0,0,0,0,0,0,0,0,0,0,0],"id":49,"left_children":[1,3,5,7,9,-1,-1,-1,-1,-1,-1],"loss_changes":[7.677253E-1,5.416263E-1,4.1109937E-1,1.5628943E-1,9.478593E-2,0E0,0E0,0E0,0E0,0E0,0E0],"parents":[2147483647,0,0,1,1,2,2,3,3,4,4],"right_children":[2,4,6,8,10,-1,-1,-1,-1,-1,-1],"split_conditions":[1E0,8.4E1,1E0,3E0,8E0,-0E0,-4.376537E-2,-2.1397276E-2,3.6976597E-4,-0E0,4.7588617E-2],"split_indices":[3,0,6,2,2,0,0,0,0,0,0],"split_type":[0,0,0,0,0,0,0,0,0,0,0],"sum_hessian":[4.4808407E1,3.6839485E1,7.968922E0,3.0542349E1,6.2971373E0,1.8358258E0,6.133096E0,3.121969E0,2.742038E1,3.6314566E0,2.6656806E0],"tree_param":{"num_deleted":"0","num_feature":"13","num_nodes":"11","size_leaf_vector":"1"}},{"base_weights":[-0E0,1.2532555E-1,-4.930729E-2,2.107003E-1,-0E0,-1.3793975E-1,-0E0,-0E0,3.262981E-2,-2.1934379E-2,-0E0,-5.257466E-3,7.637476E-3],"categories":[],"categories_nodes":[],"categories_segments":[],"categories_sizes":[],"default_left":[0,0,0,0,0,0,0,0,0,0,0,0,0],"id":50,"left_children":[1,3,5,7,-1,9,11,-1,-1,-1,-1,-1,-1],"loss_changes":[2.802095E-1,2.4992263E-1,2.7696636E-1,2.2474769E-1,0E0,3.4084985E-1,7.9665534E-2,0E0,0E0,0E0,0E0,0E0,0E0],"parents":[2147483647,0,0,1,1,2,2,3,3,5,5,6,6],"right_children":[2,4,6,8,-1,10,12,-1,-1,-1,-1,-1,-1],"split_conditions":[1E0,1E0,1E0,3E0,-0E0,8.5E1,6.7E1,-0E0,3.262981E-2,-2.1934379E-2,-0E0,-5.257466E-3,7.637476E-3],"split_indices":[7,3,1,2,0,0,0,0,0,0,0,0,0],"split_type":[0,0,0,0,0,0,0,0,0,0,0,0,0],"sum_hessian":[4.5642838E1,1.1382399E1,3.4260437E1,9.010372E0,2.3720264E0,1.806158E1,1.6198856E1,2.4056642E0,6.604708E0,1.6693937E1,1.3676434E0,2.1803553E0,1.40185E1],"tree_param":{"num_deleted":"0","num_feature":"13","num_nodes":"13","size_leaf_vector":"1"}},{"base_weights":[-0E0,-3.177225E-2,2.49581E-1,3.1016441E-2,-9.7837925E-2,4.2597137E-2,-0E0,-0E0,1.6319988E-2,-0E0,-1.2988958E-2],"categories":[],"categories_nodes":[],"categories_segments":[],"categories_sizes":[],"default_left":[0,0,0,0,0,0,0,0,0,0,0],"id":51,"left_children":[1,3,5,7,9,-1,-1,-1,-1,-1,-1],"loss_changes":[3.2591027E-1,3.1317472E-1,3.6087787E-1,1.0215069E-1,1.1458856E-1,0E0,0E0,0E0,0E0,0E0,0E0],"parents":[2147483647,0,0,1,1,2,2,3,3,4,4],"right_children":[2,4,6,8,10,-1,-1,-1,-1,-1,-1],"split_conditions":[8.7E1,1E0,4.00001E0,7.2E1,1E0,4.2597137E-2,-0E0,-0E0,1.6319988E-2,-0E0,-1.2988958E-2],"split_indices":[0,9,4,0,11,0,0,0,0,0,0],"split_type":[0,0,0,0,0,0,0,0,0,0,0],"sum_hessian":[4.509068E1,4.1548122E1,3.5425575E0,6.052989E0,3.5495132E1,3.2933908E0,2.4916679E-1,2.1040018E0,3.9489872E0,3.2223854E0,3.2272747E1],"tree_param":{"num_deleted":"0","num_feature":"13","num_nodes":"11","size_leaf_vector":"1"}},{"base_weights":[3.122209E-3,-9.123454E-2,6.5495655E-2,-0E0,-2.9000897E-2,-0E0,1.843283E-1,-2.5138117E-2,-0E0,2.90182E-2,-0E0],"categories":[],"categories_nodes":[],"categories_segments":[],"categories_sizes":[],"default_left":[0,0,0,0,0,0,0,0,0,0,0],"id":52,"left_children":[1,3,5,-1,-1,7,9,-1,-1,-1,-1],"loss_changes":[2.2967656E-1,1.950261E-1,6.907835E-1,0E0,0E0,2.648444E-1,5.583474E-1,0E0,0E0,0E0,0E0],"parents":[2147483647,0,0,1,1,2,2,5,5,6,6],"right_children":[2,4,6,-1,-1,8,10,-1,-1,-1,-1],"split_conditions":[6.7E1,1.4E1,8E0,-0E0,-2.9000897E-2,7.4E1,1E0,-2.5138117E-2,-0E0,2.90182E-2,-0E0],"split_indices":[0,2,2,0,0,0,3,0,0,0,0],"split_type":[0,0,0,0,0,0,0,0,0,0,0],"sum_hessian":[4.575654E1,5.264665E0,4.0491875E1,2.7086716E0,2.5559938E0,1.5922448E1,2.4569427E1,4.071199E0,1.1851249E1,1.95071E1,5.0623274E0],"tree_param":{"num_deleted":"0","num_feature":"13","num_nodes":"11","size_leaf_vector":"1"}},{"base_weights":[-0E0,1.18337095E-1,-7.6366395E-2,1.9743335E-1,-0E0,-2.3522916E-1,-0E0,4.1565415E-2,-0E0,-0E0,-3.3181056E-2,4.4204164E-3,-0E0],"categories":[],"categories_nodes":[],"categories_segments":[],"categories_sizes":[],"default_left":[0,0,0,0,0,0,0,0,0,0,0,0,0],"id":53,"left_children":[1,3,5,7,-1,9,11,-1,-1,-1,-1,-1,-1],"loss_changes":[3.7156355E-1,2.1102588E-1,8.3890605E-1,2.6691875E-1,0E0,5.9798324E-1,2.5669873E-2,0E0,0E0,0E0,0E0,0E0,0E0],"parents":[2147483647,0,0,1,1,2,2,3,3,5,5,6,6],"right_children":[2,4,6,8,-1,10,12,-1,-1,-1,-1,-1,-1],"split_conditions":[1E0,1E0,1E0,1E0,-0E0,1E0,1.7E1,4.1565415E-2,-0E0,-0E0,-3.3181056E-2,4.4204164E-3,-0E0],"split_indices":[7,3,1,11,0,8,2,0,0,0,0,0,0],"split_type":[0,0,0,0,0,0,0,0,0,0,0,0,0],"sum_hessian":[4.458952E1,1.1220203E1,3.3369316E1,8.803853E0,2.4163494E0,1.7783484E1,1.5585833E1,3.5458405E0,5.258013E0,7.8898025E-1,1.6994503E1,1.4895813E1,6.900199E-1],"tree_param":{"num_deleted":"0","num_feature":"13","num_nodes":"13","size_leaf_vector":"1"}},{"base_weights":[-0E0,-5.3106636E-2,9.308832E-2,-2.5643942E-1,-0E0,5.0871458E-2,-0E0,-0E0,-3.546299E-2,1.03935925E-2,-0E0,1.3218884E-2,-2.4063636E-3],"categories":[],"categories_nodes":[],"categories_segments":[],"categories_sizes":[],"default_left":[1,1,0,0,0,0,0,0,0,0,0,0,0],"id":54,"left_children":[1,3,5,7,9,-1,11,-1,-1,-1,-1,-1,-1],"loss_changes":[2.632369E-1,7.2490454E-1,4.19492E-1,3.4856272E-1,6.775172E-2,0E0,1.2692189E-1,0E0,0E0,0E0,0E0,0E0,0E0],"parents":[2147483647,0,0,1,1,2,2,3,3,4,4,6,6],"right_children":[2,4,6,8,10,-1,12,-1,-1,-1,-1,-1,-1],"split_conditions":[2E0,2E0,1E0,1E0,1E1,5.0871458E-2,1E0,-0E0,-3.546299E-2,1.03935925E-2,-0E0,1.3218884E-2,-2.4063636E-3],"split_indices":[4,5,5,6,2,0,7,0,0,0,0,0,0],"split_type":[0,0,0,0,0,0,0,0,0,0,0,0,0],"sum_hessian":[4.5802975E1,2.4832947E1,2.0970028E1,1.1131193E1,1.3701754E1,1.8515148E0,1.9118513E1,1.1020398E0,1.0029154E1,6.588821E0,7.112933E0,7.3662643E0,1.175225E1],"tree_param":{"num_deleted":"0","num_feature":"13","num_nodes":"13","size_leaf_vector":"1"}},{"base_weights":[-0E0,-1.9681783E-1,1.0920532E-2,-0E0,-3.3112147E-1,-9.858437E-2,1.695248E-1,-0E0,-4.826427E-2,-3.0360572E-2,-0E0,3.0369805E-2,-0E0],"categories":[],"categories_nodes":[],"categories_segments":[],"categories_sizes":[],"default_left":[0,0,0,0,0,0,0,0,0,0,0,0,0],"id":55,"left_children":[1,3,5,-1,7,9,11,-1,-1,-1,-1,-1,-1],"loss_changes":[2.4049774E-1,3.872213E-1,8.6071795E-1,0E0,4.0488648E-1,5.8926636E-1,8.2946295E-1,0E0,0E0,0E0,0E0,0E0,0E0],"parents":[2147483647,0,0,1,1,2,2,4,4,5,5,6,6],"right_children":[2,4,6,-1,8,10,12,-1,-1,-1,-1,-1,-1],"split_conditions":[6.7E1,1E1,8E0,-0E0,1E0,8.1E1,1E0,-0E0,-4.826427E-2,-3.0360572E-2,-0E0,3.0369805E-2,-0E0],"split_indices":[0,2,2,0,8,0,3,0,0,0,0,0,0],"split_type":[0,0,0,0,0,0,0,0,0,0,0,0,0],"sum_hessian":[4.451044E1,5.0839767E0,3.9426464E1,4.0274963E-1,4.6812267E0,1.6087572E1,2.3338894E1,3.4252226E-1,4.3387046E0,8.915324E0,7.172248E0,1.9058062E1,4.280832E0],"tree_param":{"num_deleted":"0","num_feature":"13","num_nodes":"13","size_leaf_vector":"1"}},{"base_weights":[-0E0,1.1363896E-1,-5.2142613E-2,-0E0,3.696551E-2,-9.240312E-2,-0E0,-0E0,-3.7287053E-2],"categories":[],"categories_nodes":[],"categories_segments":[],"categories_sizes":[],"default_left":[0,0,0,0,0,0,0,0,0],"id":56,"left_children":[1,3,5,-1,-1,7,-1,-1,-1],"loss_changes":[2.3396094E-1,5.8767444E-1,1.9502933E-1,0E0,0E0,4.4024816E-1,0E0,0E0,0E0],"parents":[2147483647,0,0,1,1,2,2,5,5],"right_children":[2,4,6,-1,-1,8,-1,-1,-1],"split_conditions":[1E0,7.5E1,8.7E1,-0E0,3.696551E-2,8.3E1,-0E0,-0E0,-3.7287053E-2],"split_indices":[11,0,0,0,0,0,0,0,0],"split_type":[0,0,0,0,0,0,0,0,0],"sum_hessian":[4.5453514E1,9.293504E0,3.616001E1,3.912517E0,5.380986E0,3.3674423E1,2.485588E0,2.8266312E1,5.4081116E0],"tree_param":{"num_deleted":"0","num_feature":"13","num_nodes":"9","size_leaf_vector":"1"}},{"base_weights":[-0E0,1.421482E-1,-0E0,-0E0,3.4669533E-2,-1.1193436E-1,4.5559507E-2,-0E0,-3.0464139E-3,-2.8911375E-2,-0E0,-0E0,1.741145E-2],"categories":[],"categories_nodes":[],"categories_segments":[],"categories_sizes":[],"default_left":[0,0,1,0,0,1,0,0,0,0,0,0,0],"id":57,"left_children":[1,3,5,7,-1,9,11,-1,-1,-1,-1,-1,-1],"loss_changes":[2.5289592E-1,6.4767957E-1,3.0814794E-1,2.8152002E-3,0E0,4.8850814E-1,2.3942441E-1,0E0,0E0,0E0,0E0,0E0,0E0],"parents":[2147483647,0,0,1,1,2,2,3,3,5,5,6,6],"right_children":[2,4,6,8,-1,10,12,-1,-1,-1,-1,-1,-1],"split_conditions":[1E0,7.4E1,2E0,1E0,3.4669533E-2,2E0,6.7E1,-0E0,-3.0464139E-3,-2.8911375E-2,-0E0,-0E0,1.741145E-2],"split_indices":[6,0,4,5,0,5,0,0,0,0,0,0,0],"split_type":[0,0,0,0,0,0,0,0,0,0,0,0,0],"sum_hessian":[4.400665E1,1.1515814E1,3.2490837E1,3.4499447E0,8.065868E0,2.1629112E1,1.0861724E1,7.795156E-1,2.670429E0,1.0175962E1,1.145315E1,1.3228537E0,9.538871E0],"tree_param":{"num_deleted":"0","num_feature":"13","num_nodes":"13","size_leaf_vector":"1"}},{"base_weights":[-0E0,7.838182E-2,-6.970735E-2,1.3531401E-2,-0E0,-0E0,-8.474363E-2,-1.5142115E-2,-0E0],"categories":[],"categories_nodes":[],"categories_segments":[],"categories_sizes":[],"default_left":[0,0,0,0,0,0,0,0,0],"id":58,"left_children":[1,3,5,-1,-1,-1,7,-1,-1],"loss_changes":[2.4248037E-1,5.4058723E-2,7.430656E-2,0E0,0E0,0E0,1.0100694E-1,0E0,0E0],"parents":[2147483647,0,0,1,1,2,2,6,6],"right_children":[2,4,6,-1,-1,-1,8,-1,-1],"split_conditions":[1E0,1E0,1E0,1.3531401E-2,-0E0,-0E0,1E0,-1.5142115E-2,-0E0],"split_indices":[7,6,8,0,0,0,1,0,0],"split_type":[0,0,0,0,0,0,0,0,0],"sum_hessian":[4.4814075E1,1.0681037E1,3.413304E1,7.3149953E0,3.3660417E0,1.0144558E0,3.3118584E1,1.7261005E1,1.5857578E1],"tree_param":{"num_deleted":"0","num_feature":"13","num_nodes":"9","size_leaf_vector":"1"}},{"base_weights":[-0E0,1.4170638E-1,-3.5271972E-2,2.585012E-1,-0E0,-9.850886E-2,-0E0,-0E0,4.194138E-2,-2.6356105E-2,-0E0,4.0308952E-2,-0E0],"categories":[],"categories_nodes":[],"categories_segments":[],"categories_sizes":[],"default_left":[0,0,1,0,0,1,0,0,0,0,0,0,0],"id":59,"left_children":[1,3,5,7,-1,9,11,-1,-1,-1,-1,-1,-1],"loss_changes":[2.0558989E-1,2.590459E-1,1.7916639E-1,2.5804567E-1,0E0,4.1540033E-1,3.494079E-1,0E0,0E0,0E0,0E0,0E0,0E0],"parents":[2147483647,0,0,1,1,2,2,3,3,5,5,6,6],"right_children":[2,4,6,8,-1,10,12,-1,-1,-1,-1,-1,-1],"split_conditions":[1E0,1E0,2E0,2E0,-0E0,2E0,1E0,-0E0,4.194138E-2,-2.6356105E-2,-0E0,4.0308952E-2,-0E0],"split_indices":[9,3,4,2,0,5,5,0,0,0,0,0,0],"split_type":[0,0,0,0,0,0,0,0,0,0,0,0,0],"sum_hessian":[4.3867992E1,6.88492E0,3.6983074E1,5.2460737E0,1.6388463E0,2.2332823E1,1.465025E1,1.600087E0,3.6459868E0,1.0179888E1,1.2152936E1,1.6020463E0,1.3048203E1],"tree_param":{"num_deleted":"0","num_feature":"13","num_nodes":"13","size_leaf_vector":"1"}},{"base_weights":[-0E0,1.2655884E-1,-1.4261243E-2,1.8069284E-2,-0E0,-6.067821E-2,-0E0,-0E0,-9.548475E-3],"categories":[],"categories_nodes":[],"categories_segments":[],"categories_sizes":[],"default_left":[0,0,0,0,0,0,0,0,0],"id":60,"left_children":[1,3,5,-1,-1,7,-1,-1,-1],"loss_changes":[1.3283773E-1,7.723968E-2,1.0400232E-1,0E0,0E0,1.0762943E-1,0E0,0E0,0E0],"parents":[2147483647,0,0,1,1,2,2,5,5],"right_children":[2,4,6,-1,-1,8,-1,-1,-1],"split_conditions":[1E0,1.4E1,1.6E1,1.8069284E-2,-0E0,1E0,-0E0,-0E0,-9.548475E-3],"split_indices":[9,2,2,0,0,10,0,0,0],"split_type":[0,0,0,0,0,0,0,0,0],"sum_hessian":[4.4056328E1,6.8077984E0,3.724853E1,6.4971414E0,3.10657E-1,2.9360163E1,7.8883667E0,1.2412343E0,2.8118929E1],"tree_param":{"num_deleted":"0","num_feature":"13","num_nodes":"9","size_leaf_vector":"1"}},{"base_weights":[4.291548E-2,-2.9450513E-3,1.3724774E-1,-1.0636899E-1,-0E0,-0E0,2.3888588E-1,-0E0,-2.9769104E-2,1.8958711E-4,-0E0,-0E0,-1.6580407E-2,3.1498004E-2,-0E0],"categories":[],"categories_nodes":[],"categories_segments":[],"categories_sizes":[],"default_left":[0,0,0,0,0,0,0,0,0,0,0,0,0,0,0],"id":61,"left_children":[1,3,5,7,9,11,13,-1,-1,-1,-1,-1,-1,-1,-1],"loss_changes":[4.6479806E-1,1.1486241E-1,8.4430546E-1,5.052346E-1,1.2648882E-5,7.3260576E-2,2.4414325E-1,0E0,0E0,0E0,0E0,0E0,0E0,0E0,0E0],"parents":[2147483647,0,0,1,1,2,2,3,3,4,4,5,5,6,6],"right_children":[2,4,6,8,10,12,14,-1,-1,-1,-1,-1,-1,-1,-1],"split_conditions":[8E0,8.1E1,6.7E1,7E1,6E0,1.4E1,1E0,-0E0,-2.9769104E-2,1.8958711E-4,-0E0,-0E0,-1.6580407E-2,3.1498004E-2,-0E0],"split_indices":[2,0,0,0,2,2,3,0,0,0,0,0,0,0,0],"split_type":[0,0,0,0,0,0,0,0,0,0,0,0,0,0,0],"sum_hessian":[4.4257214E1,1.6165384E1,2.8091827E1,9.16507E0,7.000314E0,4.6938453E0,2.3397982E1,1.6963505E0,7.4687195E0,3.2581398E0,3.7421744E0,2.469323E0,2.2245224E0,1.895823E1,4.439754E0],"tree_param":{"num_deleted":"0","num_feature":"13","num_nodes":"15","size_leaf_vector":"1"}},{"base_weights":[-0E0,1.7726848E-2,-1.0226605E-1,-0E0,6.86409E-2,-0E0,-2.3124438E-2,-0E0,-1.38870375E-2,-0E0,1.1711183E-2],"categories":[],"categories_nodes":[],"categories_segments":[],"categories_sizes":[],"default_left":[0,0,0,0,1,0,0,0,0,0,0],"id":62,"left_children":[1,3,5,7,9,-1,-1,-1,-1,-1,-1],"loss_changes":[1.0378183E-1,1.5408836E-1,2.1206191E-1,5.5105813E-2,1.1407547E-1,0E0,0E0,0E0,0E0,0E0,0E0],"parents":[2147483647,0,0,1,1,2,2,3,3,4,4],"right_children":[2,4,6,8,10,-1,-1,-1,-1,-1,-1],"split_conditions":[1E0,1E0,1E0,1E0,2E0,-0E0,-2.3124438E-2,-0E0,-1.38870375E-2,-0E0,1.1711183E-2],"split_indices":[3,2,6,8,5,0,0,0,0,0,0],"split_type":[0,0,0,0,0,0,0,0,0,0,0],"sum_hessian":[4.517006E1,3.7400528E1,7.769533E0,3.1351547E0,3.4265373E1,1.8957249E0,5.873808E0,6.7764366E-1,2.4575112E0,1.0542453E1,2.372292E1],"tree_param":{"num_deleted":"0","num_feature":"13","num_nodes":"11","size_leaf_vector":"1"}},{"base_weights":[-0E0,3.1059593E-2,-1.453204E-1,-0E0,7.71162E-2,-0E0,-2.8864735E-1,1.0699157E-2,-0E0,-0E0,-4.139172E-2],"categories":[],"categories_nodes":[],"categories_segments":[],"categories_sizes":[],"default_left":[0,0,0,0,0,0,0,0,0,0,0],"id":63,"left_children":[1,3,5,-1,7,-1,9,-1,-1,-1,-1],"loss_changes":[2.2544248E-1,1.6541378E-1,3.8711E-1,0E0,1.1614093E-1,0E0,2.3403603E-1,0E0,0E0,0E0,0E0],"parents":[2147483647,0,0,1,1,2,2,4,4,6,6],"right_children":[2,4,6,-1,8,-1,10,-1,-1,-1,-1],"split_conditions":[1E0,6.7E1,1E0,-0E0,4.00001E0,-0E0,6.9E1,1.0699157E-2,-0E0,-0E0,-4.139172E-2],"split_indices":[3,0,6,0,4,0,0,0,0,0,0],"split_type":[0,0,0,0,0,0,0,0,0,0,0],"sum_hessian":[4.508866E1,3.715633E1,7.9323306E0,4.1515803E0,3.300475E1,2.0220835E0,5.910247E0,3.265196E1,3.527895E-1,1.1911812E0,4.7190657E0],"tree_param":{"num_deleted":"0","num_feature":"13","num_nodes":"11","size_leaf_vector":"1"}},{"base_weights":[1.0013562E-3,-1.4137932E-2,5.3824816E-2,-0E0,-1.3139062E-2,4.3532684E-2,-0E0,-9.6380117E-4,3.2783062E-3],"categories":[],"categories_nodes":[],"categories_segments":[],"categories_sizes":[],"default_left":[0,0,0,0,0,0,0,0,0],"id":64,"left_children":[1,3,5,-1,-1,-1,7,-1,-1],"loss_changes":[1.15602165E-1,7.009987E-2,3.642324E-1,0E0,0E0,0E0,2.9343009E-2,0E0,0E0],"parents":[2147483647,0,0,1,1,2,2,6,6],"right_children":[2,4,6,-1,-1,-1,8,-1,-1],"split_conditions":[6.7E1,1E0,6.9E1,-0E0,-1.3139062E-2,4.3532684E-2,7.2E1,-9.6380117E-4,3.2783062E-3],"split_indices":[0,9,0,0,0,0,0,0,0],"split_type":[0,0,0,0,0,0,0,0,0],"sum_hessian":[4.3350365E1,4.8350296E0,3.8515335E1,8.39976E-1,3.9950533E0,2.056535E0,3.64588E1,4.9355593E0,3.1523243E1],"tree_param":{"num_deleted":"0","num_feature":"13","num_nodes":"9","size_leaf_vector":"1"}},{"base_weights":[-0E0,9.692196E-2,-7.5482726E-2,-0E0,2.7932372E-2,-1.15730464E-1,-0E0,-0E0,-1.0153494E-3,-0E0,-1.5713843E-2],"categories":[],"categories_nodes":[],"categories_segments":[],"categories_sizes":[],"default_left":[0,0,0,0,0,0,0,0,0,0,0],"id":65,"left_children":[1,3,5,7,-1,9,-1,-1,-1,-1,-1],"loss_changes":[3.0757362E-1,4.4078177E-1,2.0563494E-1,3.1805094E-4,0E0,1.5380049E-1,0E0,0E0,0E0,0E0,0E0],"parents":[2147483647,0,0,1,1,2,2,3,3,5,5],"right_children":[2,4,6,8,-1,10,-1,-1,-1,-1,-1],"split_conditions":[1E0,7.4E1,8.4E1,1E0,2.7932372E-2,1E0,-0E0,-0E0,-1.0153494E-3,-0E0,-1.5713843E-2],"split_indices":[6,0,0,5,0,9,0,0,0,0,0],"split_type":[0,0,0,0,0,0,0,0,0,0,0],"sum_hessian":[4.412756E1,1.1108379E1,3.3019184E1,3.5085087E0,7.59987E0,2.882513E1,4.1940527E0,7.7556825E-1,2.7329404E0,2.713636E0,2.6111494E1],"tree_param":{"num_deleted":"0","num_feature":"13","num_nodes":"11","size_leaf_vector":"1"}},{"base_weights":[-0E0,1.4149708E-1,-5.8512966E-4,2.435008E-2,-0E0,-5.041536E-2,-0E0,-1.1802719E-2,-0E0,-2.2665246E-3,7.3082945E-3],"categories":[],"categories_nodes":[],"categories_segments":[],"categories_sizes":[],"default_left":[0,0,0,0,0,0,0,0,0,0,0],"id":66,"left_children":[1,3,5,-1,-1,7,9,-1,-1,-1,-1],"loss_changes":[2.254565E-1,2.0796287E-1,4.7497485E-2,0E0,0E0,1.5216468E-1,6.6937804E-2,0E0,0E0,0E0,0E0],"parents":[2147483647,0,0,1,1,2,2,5,5,6,6],"right_children":[2,4,6,-1,-1,8,10,-1,-1,-1,-1],"split_conditions":[1E0,1E0,1E0,2.435008E-2,-0E0,8.5E1,6.7E1,-1.1802719E-2,-0E0,-2.2665246E-3,7.3082945E-3],"split_indices":[7,3,1,0,0,0,0,0,0,0,0],"split_type":[0,0,0,0,0,0,0,0,0,0,0],"sum_hessian":[4.397783E1,1.0260172E1,3.371766E1,7.8446574E0,2.4155142E0,1.7691904E1,1.6025753E1,1.6343744E1,1.3481603E0,2.1658657E0,1.3859887E1],"tree_param":{"num_deleted":"0","num_feature":"13","num_nodes":"11","size_leaf_vector":"1"}},{"base_weights":[-0E0,5.440329E-2,-2.0494731E-2,-0E0,1.1274551E-1,-0E0,-4.6827863E-3,-0E0,-1.6971294E-2,-0E0,1.7610768E-2],"categories":[],"categories_nodes":[],"categories_segments":[],"categories_sizes":[],"default_left":[0,0,0,0,1,0,0,0,0,0,0],"id":67,"left_children":[1,3,5,7,9,-1,-1,-1,-1,-1,-1],"loss_changes":[1.1436809E-1,3.2658514E-1,1.1528498E-2,8.017207E-2,1.8628106E-1,0E0,0E0,0E0,0E0,0E0,0E0],"parents":[2147483647,0,0,1,1,2,2,3,3,4,4],"right_children":[2,4,6,8,10,-1,-1,-1,-1,-1,-1],"split_conditions":[1E0,1E0,1E0,1E0,2E0,-0E0,-4.6827863E-3,-0E0,-1.6971294E-2,-0E0,1.7610768E-2],"split_indices":[3,2,2,8,5,0,0,0,0,0,0],"split_type":[0,0,0,0,0,0,0,0,0,0,0],"sum_hessian":[4.3929615E1,3.6436188E1,7.4934263E0,3.0276604E0,3.3408527E1,1.6353568E-1,7.3298903E0,6.5961033E-1,2.36805E0,1.0076329E1,2.3332197E1],"tree_param":{"num_deleted":"0","num_feature":"13","num_nodes":"11","size_leaf_vector":"1"}},{"base_weights":[-0E0,7.546776E-2,-5.4098785E-2,1.8958305E-1,-0E0,-0E0,-6.745667E-2,-0E0,3.3598166E-2,-0E0,-8.638811E-3],"categories":[],"categories_nodes":[],"categories_segments":[],"categories_sizes":[],"default_left":[0,0,0,0,0,0,0,0,0,0,0],"id":68,"left_children":[1,3,5,7,-1,-1,9,-1,-1,-1,-1],"loss_changes":[1.5281397E-1,1.6836146E-1,5.6613438E-2,1.9041291E-1,0E0,0E0,4.2313874E-2,0E0,0E0,0E0,0E0],"parents":[2147483647,0,0,1,1,2,2,3,3,6,6],"right_children":[2,4,6,8,-1,-1,10,-1,-1,-1,-1],"split_conditions":[1E0,1E0,1E0,2E0,-0E0,-0E0,1E0,-0E0,3.3598166E-2,-0E0,-8.638811E-3],"split_indices":[9,3,10,2,0,0,11,0,0,0,0],"split_type":[0,0,0,0,0,0,0,0,0,0,0],"sum_hessian":[4.320089E1,6.413393E0,3.6787495E1,4.8590264E0,1.5543666E0,1.0423242E0,3.574517E1,1.5607454E0,3.298281E0,2.7747312E0,3.297044E1],"tree_param":{"num_deleted":"0","num_feature":"13","num_nodes":"11","size_leaf_vector":"1"}},{"base_weights":[-0E0,-2.2440901E-2,3.9114088E-2,-0E0,-9.26731E-2,1.4119835E-1,-0E0,-2.8163483E-2,-0E0,4.036384E-2,-0E0,-2.3422029E-2,5.9387605E-3],"categories":[],"categories_nodes":[],"categories_segments":[],"categories_sizes":[],"default_left":[0,0,0,0,0,0,0,0,0,0,0,0,0],"id":69,"left_children":[1,3,5,-1,7,9,11,-1,-1,-1,-1,-1,-1],"loss_changes":[5.229774E-2,1.235273E-1,2.97575E-1,0E0,4.3273905E-1,1.0472133E0,3.6096746E-1,0E0,0E0,0E0,0E0,0E0,0E0],"parents":[2147483647,0,0,1,1,2,2,4,4,5,5,6,6],"right_children":[2,4,6,-1,8,10,12,-1,-1,-1,-1,-1,-1],"split_conditions":[8E0,7E1,1.4E1,-0E0,8.1E1,7.8E1,7.8E1,-2.8163483E-2,-0E0,4.036384E-2,-0E0,-2.3422029E-2,5.9387605E-3],"split_indices":[2,0,2,0,0,0,0,0,0,0,0,0,0],"split_type":[0,0,0,0,0,0,0,0,0,0,0,0,0],"sum_hessian":[4.3697803E1,1.616415E1,2.7533653E1,1.7744918E0,1.4389658E1,1.6115385E1,1.1418269E1,7.6177125E0,6.7719455E0,9.311652E0,6.8037333E0,6.5867677E0,4.831501E0],"tree_param":{"num_deleted":"0","num_feature":"13","num_nodes":"13","size_leaf_vector":"1"}},{"base_weights":[-0E0,5.3328164E-2,-0E0,1.2270188E-1,-0E0,-0E0,-1.8969221E-2,2.5227984E-2,-0E0,-0E0,-3.5426086E-3],"categories":[],"categories_nodes":[],"categories_segments":[],"categories_sizes":[],"default_left":[0,0,0,0,0,0,0,0,0,0,0],"id":70,"left_children":[1,3,5,7,-1,-1,9,-1,-1,-1,-1],"loss_changes":[2.5179641E-2,8.60266E-2,1.2500348E-2,8.5870214E-2,0E0,0E0,2.2505304E-2,0E0,0E0,0E0,0E0],"parents":[2147483647,0,0,1,1,2,2,3,3,6,6],"right_children":[2,4,6,8,-1,-1,10,-1,-1,-1,-1],"split_conditions":[1E0,1E0,1E0,1E0,-0E0,-0E0,1E0,2.5227984E-2,-0E0,-0E0,-3.5426086E-3],"split_indices":[11,3,9,7,0,0,12,0,0,0,0],"split_type":[0,0,0,0,0,0,0,0,0,0,0],"sum_hessian":[4.292371E1,7.853935E0,3.5069775E1,6.386296E0,1.4676391E0,1.3303185E0,3.3739456E1,2.7467525E0,3.6395433E0,9.8919183E-1,3.2750267E1],"tree_param":{"num_deleted":"0","num_feature":"13","num_nodes":"11","size_leaf_vector":"1"}},{"base_weights":[-0E0,-1.7100556E-1,3.2789033E-2,-0E0,-2.958802E-1,3.7531994E-2,-0E0,-0E0,-3.5189763E-2,-1.0439368E-2,2.4439718E-3],"categories":[],"categories_nodes":[],"categories_segments":[],"categories_sizes":[],"default_left":[0,0,0,0,0,0,0,0,0,0,0],"id":71,"left_children":[1,3,5,-1,7,-1,9,-1,-1,-1,-1],"loss_changes":[2.0946541E-1,2.5939536E-1,3.6773366E-1,0E0,6.349969E-2,0E0,7.32699E-2,0E0,0E0,0E0,0E0],"parents":[2147483647,0,0,1,1,2,2,4,4,6,6],"right_children":[2,4,6,-1,8,-1,10,-1,-1,-1,-1],"split_conditions":[6.7E1,1E0,6.9E1,-0E0,1E0,3.7531994E-2,7.2E1,-0E0,-3.5189763E-2,-1.0439368E-2,2.4439718E-3],"split_indices":[0,9,0,0,7,0,0,0,0,0,0],"split_type":[0,0,0,0,0,0,0,0,0,0,0],"sum_hessian":[4.3956543E1,4.682257E0,3.9274284E1,8.2120734E-1,3.86105E0,2.5306866E0,3.67436E1,8.228612E-2,3.7787638E0,5.3602242E0,3.1383375E1],"tree_param":{"num_deleted":"0","num_feature":"13","num_nodes":"11","size_leaf_vector":"1"}},{"base_weights":[-0E0,-2.5132871E-3,5.2866664E-2,-0E0,-1.3210802E-1,-0E0,1.4986782E-1,-0E0,5.0980006E-3,-0E0,-2.2026109E-2,-0E0,-1.537122E-2,2.0034958E-2,-0E0],"categories":[],"categories_nodes":[],"categories_segments":[],"categories_sizes":[],"default_left":[1,0,0,0,0,0,0,0,0,0,0,0,0,0,0],"id":72,"left_children":[1,3,5,7,9,11,13,-1,-1,-1,-1,-1,-1,-1,-1],"loss_changes":[5.716432E-2,1.4717129E-1,3.1424502E-1,2.424723E-2,1.7481588E-1,7.441269E-2,8.3826095E-2,0E0,0E0,0E0,0E0,0E0,0E0,0E0,0E0],"parents":[2147483647,0,0,1,1,2,2,3,3,4,4,5,5,6,6],"right_children":[2,4,6,8,10,12,14,-1,-1,-1,-1,-1,-1,-1,-1],"split_conditions":[2E0,1.4E1,4E0,8E0,1E0,1E0,1E0,-0E0,5.0980006E-3,-0E0,-2.2026109E-2,-0E0,-1.537122E-2,2.0034958E-2,-0E0],"split_indices":[4,2,2,2,7,8,3,0,0,0,0,0,0,0,0],"split_type":[0,0,0,0,0,0,0,0,0,0,0,0,0,0,0],"sum_hessian":[4.3805725E1,2.4409954E1,1.939577E1,1.6968096E1,7.4418597E0,3.8667037E0,1.5529066E1,6.679297E0,1.0288798E1,4.0724826E-1,7.034611E0,1.0559082E0,2.8107955E0,1.271802E1,2.8110456E0],"tree_param":{"num_deleted":"0","num_feature":"13","num_nodes":"15","size_leaf_vector":"1"}},{"base_weights":[-0E0,-8.667412E-2,2.9010056E-2,-2.4192348E-1,-0E0,-0E0,9.581186E-2,-0E0,-4.5859933E-2,8.678648E-3,-0E0,-0E0,-6.5281517E-3,1.9642591E-2,-0E0],"categories":[],"categories_nodes":[],"categories_segments":[],"categories_sizes":[],"default_left":[0,0,0,0,0,0,0,0,0,0,0,0,0,0,0],"id":73,"left_children":[1,3,5,7,9,11,13,-1,-1,-1,-1,-1,-1,-1,-1],"loss_changes":[1.4337267E-1,4.3807358E-1,1.9983266E-1,8.014227E-1,2.426161E-2,1.8171957E-2,3.6544895E-1,0E0,0E0,0E0,0E0,0E0,0E0,0E0,0E0],"parents":[2147483647,0,0,1,1,2,2,3,3,4,4,5,5,6,6],"right_children":[2,4,6,8,10,12,14,-1,-1,-1,-1,-1,-1,-1,-1],"split_conditions":[8E0,8.1E1,6.7E1,7E1,6E0,1E1,8.2E1,-0E0,-4.5859933E-2,8.678648E-3,-0E0,-0E0,-6.5281517E-3,1.9642591E-2,-0E0],"split_indices":[2,0,0,0,2,2,0,0,0,0,0,0,0,0,0],"split_type":[0,0,0,0,0,0,0,0,0,0,0,0,0,0,0],"sum_hessian":[4.260472E1,1.486523E1,2.7739492E1,8.521415E0,6.3438153E0,4.336282E0,2.340321E1,1.7044805E0,6.816934E0,2.8976324E0,3.4461832E0,1.7679349E-1,4.1594887E0,1.7486225E1,5.916985E0],"tree_param":{"num_deleted":"0","num_feature":"13","num_nodes":"15","size_leaf_vector":"1"}},{"base_weights":[-0E0,-4.7538113E-2,1.7187552E-1,-0E0,-2.2789712E-1,2.0363746E-2,-0E0,-3.5047338E-3,1.1708409E-2,-0E0,-4.4672314E-2],"categories":[],"categories_nodes":[],"categories_segments":[],"categories_sizes":[],"default_left":[0,0,0,0,0,0,0,0,0,0,0],"id":74,"left_children":[1,3,5,7,9,-1,-1,-1,-1,-1,-1],"loss_changes":[2.1128944E-1,2.73196E-1,5.493015E-3,9.601274E-2,5.7057595E-1,0E0,0E0,0E0,0E0,0E0,0E0],"parents":[2147483647,0,0,1,1,2,2,3,3,4,4],"right_children":[2,4,6,8,10,-1,-1,-1,-1,-1,-1],"split_conditions":[8.7E1,8.3E1,1E0,8.1E1,1E0,2.0363746E-2,-0E0,-3.5047338E-3,1.1708409E-2,-0E0,-4.4672314E-2],"split_indices":[0,0,3,0,12,0,0,0,0,0,0],"split_type":[0,0,0,0,0,0,0,0,0,0,0],"sum_hessian":[4.24047E1,3.9338165E1,3.0665371E0,3.332285E1,6.015314E0,2.6655614E0,4.0097576E-1,2.8490665E1,4.832185E0,1.3465546E0,4.66876E0],"tree_param":{"num_deleted":"0","num_feature":"13","num_nodes":"11","size_leaf_vector":"1"}},{"base_weights":[-0E0,-2.1728357E-2,3.673023E-2,-7.448528E-2,-0E0,-0E0,1.186335E-1,-0E0,-1.2699781E-2,-2.9320535E-3,-0E0,-0E0,2.0982038E-2],"categories":[],"categories_nodes":[],"categories_segments":[],"categories_sizes":[],"default_left":[0,0,0,0,0,0,0,0,0,0,0,0,0],"id":75,"left_children":[1,3,5,7,-1,9,11,-1,-1,-1,-1,-1,-1],"loss_changes":[3.8983032E-2,1.136422E-1,2.0393983E-1,1.4765187E-1,0E0,2.6643912E-3,2.9458076E-1,0E0,0E0,0E0,0E0,0E0,0E0],"parents":[2147483647,0,0,1,1,2,2,3,3,5,5,6,6],"right_children":[2,4,6,8,-1,10,12,-1,-1,-1,-1,-1,-1],"split_conditions":[1E0,8.5E1,4E0,1E0,-0E0,8.4E1,6.7E1,-0E0,-1.2699781E-2,-2.9320535E-3,-0E0,-0E0,2.0982038E-2],"split_indices":[4,0,2,6,0,0,0,0,0,0,0,0,0],"split_type":[0,0,0,0,0,0,0,0,0,0,0,0,0],"sum_hessian":[4.2611843E1,2.3177341E1,1.9434504E1,2.1540659E1,1.6366825E0,3.9850416E0,1.5449462E1,2.0813057E0,1.9459352E1,2.750072E0,1.2349696E0,1.9900992E0,1.3459362E1],"tree_param":{"num_deleted":"0","num_feature":"13","num_nodes":"13","size_leaf_vector":"1"}},{"base_weights":[-0E0,-4.7626488E-2,1.7641447E-2,-0E0,-1.1580168E-1,1.0488324E-2,-0E0,-0E0,-1.447504E-2,-1.1179845E-2,-0E0],"categories":[],"categories_nodes":[],"categories_segments":[],"categories_sizes":[],"default_left":[0,0,0,0,0,0,1,0,0,0,0],"id":76,"left_children":[1,3,5,-1,7,-1,9,-1,-1,-1,-1],"loss_changes":[4.592687E-2,1.2517215E-1,1.4172456E-1,0E0,2.67815E-2,0E0,8.53388E-2,0E0,0E0,0E0,0E0],"parents":[2147483647,0,0,1,1,2,2,4,4,6,6],"right_children":[2,4,6,-1,8,-1,10,-1,-1,-1,-1],"split_conditions":[8E0,1E0,1.4E1,-0E0,1E0,1.0488324E-2,2E0,-0E0,-1.447504E-2,-1.1179845E-2,-0E0],"split_indices":[2,9,2,0,11,0,4,0,0,0,0],"split_type":[0,0,0,0,0,0,0,0,0,0,0],"sum_hessian":[4.21075E1,1.5453085E1,2.6654413E1,4.3358545E0,1.111723E1,1.5535687E1,1.1118726E1,1.1868167E0,9.930413E0,7.261527E0,3.8571982E0],"tree_param":{"num_deleted":"0","num_feature":"13","num_nodes":"11","size_leaf_vector":"1"}},{"base_weights":[-0E0,8.9885496E-2,-3.4476232E-3,1.20156705E-1,-0E0,-5.9147432E-2,-0E0,-0E0,1.8768126E-2,-2.4880394E-2,-0E0],"categories":[],"categories_nodes":[],"categories_segments":[],"categories_sizes":[],"default_left":[0,0,0,0,0,1,0,0,0,0,0],"id":77,"left_children":[1,3,5,7,-1,9,-1,-1,-1,-1,-1],"loss_changes":[7.287417E-2,5.0826028E-2,6.464932E-2,6.690139E-2,0E0,2.4902162E-1,0E0,0E0,0E0,0E0,0E0],"parents":[2147483647,0,0,1,1,2,2,3,3,5,5],"right_children":[2,4,6,8,-1,10,-1,-1,-1,-1,-1],"split_conditions":[1E0,1.4E1,1E0,2E0,-0E0,2E0,-0E0,-0E0,1.8768126E-2,-2.4880394E-2,-0E0],"split_indices":[11,2,1,2,0,5,0,0,0,0,0],"split_type":[0,0,0,0,0,0,0,0,0,0,0],"sum_hessian":[4.3339092E1,7.9662385E0,3.5372852E1,7.537955E0,4.282839E-1,1.7603163E1,1.7769691E1,2.005388E0,5.5325665E0,5.1396446E0,1.2463518E1],"tree_param":{"num_deleted":"0","num_feature":"13","num_nodes":"11","size_leaf_vector":"1"}},{"base_weights":[-0E0,-0E0,2.5391271E-2,-0E0,-1.1340779E-1,3.4815863E-1,-0E0,-0E0,-2.4514629E-2,4.40045E-2,-0E0,-1.1677933E-2,1.9573441E-3],"categories":[],"categories_nodes":[],"categories_segments":[],"categories_sizes":[],"default_left":[0,0,0,0,0,0,0,0,0,0,0,0,0],"id":78,"left_children":[1,3,5,-1,7,9,11,-1,-1,-1,-1,-1,-1],"loss_changes":[2.5150817E-2,6.7364916E-2,3.5387826E-1,0E0,1.553053E-1,1.0448381E-1,8.023729E-2,0E0,0E0,0E0,0E0,0E0,0E0],"parents":[2147483647,0,0,1,1,2,2,4,4,5,5,6,6],"right_children":[2,4,6,-1,8,10,12,-1,-1,-1,-1,-1,-1],"split_conditions":[6.7E1,1E1,6.9E1,-0E0,1E0,1.7E1,7.2E1,-0E0,-2.4514629E-2,4.40045E-2,-0E0,-1.1677933E-2,1.9573441E-3],"split_indices":[0,2,0,0,9,2,0,0,0,0,0,0,0],"split_type":[0,0,0,0,0,0,0,0,0,0,0,0,0],"sum_hessian":[4.2612556E1,4.601904E0,3.8010654E1,3.6411512E-1,4.2377887E0,2.1269302E0,3.5883724E1,7.5449866E-1,3.4832902E0,2.0213373E0,1.05593E-1,5.2299156E0,3.0653807E1],"tree_param":{"num_deleted":"0","num_feature":"13","num_nodes":"13","size_leaf_vector":"1"}},{"base_weights":[-0E0,-3.7031332E-3,9.210254E-3,-0E0,-5.8348943E-2,4.547287E-2,-0E0,-0E0,-8.714917E-3,7.6584253E-3,-0E0,-4.3879747E-3,-0E0],"categories":[],"categories_nodes":[],"categories_segments":[],"categories_sizes":[],"default_left":[0,0,0,0,0,0,1,0,0,0,0,0,0],"id":79,"left_children":[1,3,5,-1,7,9,11,-1,-1,-1,-1,-1,-1],"loss_changes":[2.58758E-3,4.200964E-2,3.0760037E-2,0E0,3.068177E-2,1.709485E-2,1.3452668E-2,0E0,0E0,0E0,0E0,0E0,0E0],"parents":[2147483647,0,0,1,1,2,2,4,4,5,5,6,6],"right_children":[2,4,6,-1,8,10,12,-1,-1,-1,-1,-1,-1],"split_conditions":[8E0,1E0,1.4E1,-0E0,1E0,1E0,2E0,-0E0,-8.714917E-3,7.6584253E-3,-0E0,-4.3879747E-3,-0E0],"split_indices":[2,9,2,0,10,4,4,0,0,0,0,0,0],"split_type":[0,0,0,0,0,0,0,0,0,0,0,0,0],"sum_hessian":[4.2575214E1,1.5785091E1,2.6790121E1,4.378399E0,1.14066925E1,1.50159235E1,1.1774199E1,7.891327E-1,1.061756E1,9.358966E0,5.656957E0,7.4540644E0,4.320134E0],"tree_param":{"num_deleted":"0","num_feature":"13","num_nodes":"13","size_leaf_vector":"1"}},{"base_weights":[1.007539E-2,6.370529E-2,-0E0,-0E0,1.2371572E-1,-0E0,-4.8675906E-2,-0E0,-1.53833795E-2,-0E0,1.969531E-2,-0E0,-1.17067285E-2],"categories":[],"categories_nodes":[],"categories_segments":[],"categories_sizes":[],"default_left":[0,0,0,0,0,0,0,0,0,0,0,0,0],"id":80,"left_children":[1,3,5,7,9,-1,11,-1,-1,-1,-1,-1,-1],"loss_changes":[1.4271712E-1,3.639799E-1,1.7042303E-2,6.353372E-2,4.3498784E-1,0E0,6.073823E-2,0E0,0E0,0E0,0E0,0E0,0E0],"parents":[2147483647,0,0,1,1,2,2,3,3,4,4,6,6],"right_children":[2,4,6,8,10,-1,12,-1,-1,-1,-1,-1,-1],"split_conditions":[1E0,1E0,6.9E1,1E0,6.7E1,-0E0,1E0,-0E0,-1.53833795E-2,-0E0,1.969531E-2,-0E0,-1.17067285E-2],"split_indices":[3,2,0,8,0,0,2,0,0,0,0,0,0],"split_type":[0,0,0,0,0,0,0,0,0,0,0,0,0],"sum_hessian":[4.2783577E1,3.5261345E1,7.52223E0,2.8655777E0,3.2395767E1,1.3293933E0,6.192837E0,6.17053E-1,2.2485247E0,3.8829744E0,2.8512794E1,3.2554978E-1,5.867287E0],"tree_param":{"num_deleted":"0","num_feature":"13","num_nodes":"13","size_leaf_vector":"1"}},{"base_weights":[-0E0,5.6793075E-2,-3.5280716E-2,7.895205E-2,-0E0,-1.9984089E-1,-0E0,1.4193951E-2,-0E0,-0E0,-3.7966162E-2,1.2127389E-2,-1.8832017E-3],"categories":[],"categories_nodes":[],"categories_segments":[],"categories_sizes":[],"default_left":[0,0,0,0,0,0,0,0,0,0,0,0,0],"id":81,"left_children":[1,3,5,7,-1,9,11,-1,-1,-1,-1,-1,-1],"loss_changes":[7.679734E-2,2.0270914E-2,1.674281E-1,4.8425052E-2,0E0,3.8018006E-1,4.37198E-2,0E0,0E0,0E0,0E0,0E0,0E0],"parents":[2147483647,0,0,1,1,2,2,3,3,5,5,6,6],"right_children":[2,4,6,8,-1,10,12,-1,-1,-1,-1,-1,-1],"split_conditions":[1E0,8.6E1,6.7E1,1E0,-0E0,1E1,6.9E1,1.4193951E-2,-0E0,-0E0,-3.7966162E-2,1.2127389E-2,-1.8832017E-3],"split_indices":[7,0,0,6,0,2,0,0,0,0,0,0,0],"split_type":[0,0,0,0,0,0,0,0,0,0,0,0,0],"sum_hessian":[4.2933807E1,9.534999E0,3.3398808E1,7.70325E0,1.8317496E0,4.2645054E0,2.91343E1,5.166634E0,2.5366158E0,3.0821207E-1,3.9562933E0,1.9164758E0,2.7217825E1],"tree_param":{"num_deleted":"0","num_feature":"13","num_nodes":"13","size_leaf_vector":"1"}},{"base_weights":[-0E0,-0E0,-8.825356E-2,-0E0,1.40322E-1,-0E0,-1.7667253E-1,-0E0,-1.5258843E-2,2.5724255E-2,-0E0,-2.9377982E-2,-0E0],"categories":[],"categories_nodes":[],"categories_segments":[],"categories_sizes":[],"default_left":[0,0,0,0,0,0,0,0,0,0,0,0,0],"id":82,"left_children":[1,3,5,7,9,-1,11,-1,-1,-1,-1,-1,-1],"loss_changes":[6.422441E-2,1.2736924E-1,1.522876E-1,6.1455112E-2,2.1284346E-1,0E0,7.062115E-2,0E0,0E0,0E0,0E0,0E0,0E0],"parents":[2147483647,0,0,1,1,2,2,3,3,4,4,6,6],"right_children":[2,4,6,8,10,-1,12,-1,-1,-1,-1,-1,-1],"split_conditions":[1E0,8.4E1,6.9E1,8.3E1,4.00001E0,-0E0,2E0,-0E0,-1.5258843E-2,2.5724255E-2,-0E0,-2.9377982E-2,-0E0],"split_indices":[3,0,0,0,4,0,4,0,0,0,0,0,0],"split_type":[0,0,0,0,0,0,0,0,0,0,0,0,0],"sum_hessian":[4.2192596E1,3.4946743E1,7.2458544E0,2.9478104E1,5.46864E0,1.3092984E0,5.936556E0,2.7284359E1,2.1937447E0,5.220858E0,2.477818E-1,3.025546E0,2.9110098E0],"tree_param":{"num_deleted":"0","num_feature":"13","num_nodes":"13","size_leaf_vector":"1"}},{"base_weights":[-0E0,-0E0,1.1555718E-2,-0E0,-1.547244E-1,-0E0,4.1353325E-3,-0E0,-2.9908935E-2],"categories":[],"categories_nodes":[],"categories_segments":[],"categories_sizes":[],"default_left":[0,0,0,0,0,0,0,0,0],"id":83,"left_children":[1,3,-1,5,7,-1,-1,-1,-1],"loss_changes":[6.0861494E-2,1.4287323E-1,0E0,4.3840047E-2,2.1880677E-1,0E0,0E0,0E0,0E0],"parents":[2147483647,0,0,1,1,3,3,4,4],"right_children":[2,4,-1,6,8,-1,-1,-1,-1],"split_conditions":[8.5E1,8.3E1,1.1555718E-2,3E0,1E0,-0E0,4.1353325E-3,-0E0,-2.9908935E-2],"split_indices":[0,0,0,2,9,0,0,0,0],"split_type":[0,0,0,0,0,0,0,0,0],"sum_hessian":[4.203247E1,3.7517616E1,4.5148544E0,3.2549553E1,4.9680605E0,2.530005E0,3.0019548E1,1.075818E0,3.8922424E0],"tree_param":{"num_deleted":"0","num_feature":"13","num_nodes":"9","size_leaf_vector":"1"}},{"base_weights":[-0E0,1.0303442E-1,-1.6030474E-2,-0E0,3.4523413E-2,-0E0,-1.1955983E-1,-0E0,-3.1593603E-3,-0E0,7.4087223E-3,-3.2845482E-2,-0E0],"categories":[],"categories_nodes":[],"categories_segments":[],"categories_sizes":[],"default_left":[0,0,0,0,0,1,0,0,0,0,0,0,0],"id":84,"left_children":[1,3,5,7,-1,9,11,-1,-1,-1,-1,-1,-1],"loss_changes":[1.2135742E-1,6.7143863E-1,1.6962473E-1,2.6296757E-3,0E0,6.2137056E-2,5.6465024E-1,0E0,0E0,0E0,0E0,0E0,0E0],"parents":[2147483647,0,0,1,1,2,2,3,3,5,5,6,6],"right_children":[2,4,6,8,-1,10,12,-1,-1,-1,-1,-1,-1],"split_conditions":[1E0,7.4E1,8E1,1E0,3.4523413E-2,2E0,8.4E1,-0E0,-3.1593603E-3,-0E0,7.4087223E-3,-3.2845482E-2,-0E0],"split_indices":[6,0,0,5,0,5,0,0,0,0,0,0,0],"split_type":[0,0,0,0,0,0,0,0,0,0,0,0,0],"sum_hessian":[4.1278645E1,9.641433E0,3.163721E1,2.6779962E0,6.9634366E0,2.0184095E1,1.1453116E1,4.9020958E-1,2.1877866E0,7.486338E0,1.2697757E1,7.3296223E0,4.1234937E0],"tree_param":{"num_deleted":"0","num_feature":"13","num_nodes":"13","size_leaf_vector":"1"}},{"base_weights":[-0E0,4.7542606E-3,-2.6151268E-2,-1.0980884E-1,-0E0,-2.299874E-2,-0E0,-0E0,5.701462E-3],"categories":[],"categories_nodes":[],"categories_segments":[],"categories_sizes":[],"default_left":[0,0,1,1,0,0,0,0,0],"id":85,"left_children":[1,-1,3,5,7,-1,-1,-1,-1],"loss_changes":[4.2742006E-2,0E0,2.4471807E-1,1.998603E-1,2.8141396E-2,0E0,0E0,0E0,0E0],"parents":[2147483647,0,0,2,2,3,3,4,4],"right_children":[2,-1,4,6,8,-1,-1,-1,-1],"split_conditions":[1E0,4.7542606E-3,2E0,2E0,4E0,-2.299874E-2,-0E0,-0E0,5.701462E-3],"split_indices":[6,0,4,5,2,0,0,0,0],"split_type":[0,0,0,0,0,0,0,0,0],"sum_hessian":[4.158465E1,9.9236145E0,3.1661032E1,2.1147535E1,1.0513496E1,9.681077E0,1.1466459E1,1.038389E0,9.475108E0],"tree_param":{"num_deleted":"0","num_feature":"13","num_nodes":"9","size_leaf_vector":"1"}},{"base_weights":[-0E0,-3.6365625E-2,3.3497214E-2,-0E0,-6.9314174E-2,6.6367656E-2,-0E0,-1.520856E-2,-0E0,8.852655E-3,-0E0],"categories":[],"categories_nodes":[],"categories_segments":[],"categories_sizes":[],"default_left":[0,0,0,0,0,0,0,0,0,0,0],"id":86,"left_children":[1,3,5,-1,7,9,-1,-1,-1,-1,-1],"loss_changes":[5.280993E-2,4.3189734E-2,7.092391E-2,0E0,1.3432384E-1,4.6543203E-2,0E0,0E0,0E0,0E0,0E0],"parents":[2147483647,0,0,1,1,2,2,4,4,5,5],"right_children":[2,4,6,-1,8,10,-1,-1,-1,-1,-1],"split_conditions":[8E0,1E0,1E0,-0E0,1E0,2E1,-0E0,-1.520856E-2,-0E0,8.852655E-3,-0E0],"split_indices":[2,8,3,0,1,2,0,0,0,0,0],"split_type":[0,0,0,0,0,0,0,0,0,0,0],"sum_hessian":[4.2187458E1,1.5112193E1,2.7075266E1,2.687686E0,1.2424507E1,2.225401E1,4.821256E0,9.400928E0,3.0235791E0,2.2000393E1,2.5361666E-1],"tree_param":{"num_deleted":"0","num_feature":"13","num_nodes":"11","size_leaf_vector":"1"}},{"base_weights":[-0E0,1.5506871E-1,-1.8992761E-2,2.2377579E-1,-0E0,-5.772062E-2,-0E0,-0E0,4.2131055E-2,-1.4684383E-2,-0E0],"categories":[],"categories_nodes":[],"categories_segments":[],"categories_sizes":[],"default_left":[0,0,0,0,0,0,0,0,0,0,0],"id":87,"left_children":[1,3,5,7,-1,9,-1,-1,-1,-1,-1],"loss_changes":[2.5626397E-1,1.8378408E-1,9.234664E-2,4.147602E-1,0E0,2.0993476E-1,0E0,0E0,0E0,0E0,0E0],"parents":[2147483647,0,0,1,1,2,2,3,3,5,5],"right_children":[2,4,6,8,-1,10,-1,-1,-1,-1,-1],"split_conditions":[1E0,8.6E1,8.5E1,1E0,-0E0,1E0,-0E0,-0E0,4.2131055E-2,-1.4684383E-2,-0E0],"split_indices":[7,0,0,4,0,1,0,0,0,0,0],"split_type":[0,0,0,0,0,0,0,0,0,0,0],"sum_hessian":[4.204146E1,9.148671E0,3.2892788E1,7.543524E0,1.6051471E0,3.0387447E1,2.5053396E0,2.7998066E0,4.743717E0,1.6648378E1,1.373907E1],"tree_param":{"num_deleted":"0","num_feature":"13","num_nodes":"11","size_leaf_vector":"1"}},{"base_weights":[-0E0,2.217357E-2,-6.2479552E-2,-0E0,7.3925324E-2,-0E0,-1.1302975E-2,-0E0,-6.531666E-3,1.0457806E-2,-0E0],"categories":[],"categories_nodes":[],"categories_segments":[],"categories_sizes":[],"default_left":[0,0,0,0,0,0,0,0,0,0,0],"id":88,"left_children":[1,3,5,7,9,-1,-1,-1,-1,-1,-1],"loss_changes":[4.8597958E-2,1.604631E-1,5.0434284E-2,1.201801E-2,1.13258764E-1,0E0,0E0,0E0,0E0,0E0,0E0],"parents":[2147483647,0,0,1,1,2,2,3,3,4,4],"right_children":[2,4,6,8,10,-1,-1,-1,-1,-1,-1],"split_conditions":[1E0,1E0,1E0,1E0,4.00001E0,-0E0,-1.1302975E-2,-0E0,-6.531666E-3,1.0457806E-2,-0E0],"split_indices":[3,2,2,8,4,0,0,0,0,0,0],"split_type":[0,0,0,0,0,0,0,0,0,0,0],"sum_hessian":[4.1511143E1,3.4537888E1,6.9732533E0,2.9784346E0,3.1559454E1,2.4868849E-1,6.7245646E0,5.698814E-1,2.4085534E0,3.1217192E1,3.422615E-1],"tree_param":{"num_deleted":"0","num_feature":"13","num_nodes":"11","size_leaf_vector":"1"}},{"base_weights":[-0E0,-0E0,2.9422548E-2,-0E0,1.2369129E-1,-1.0389104E-2,-0E0,2.8092286E-2,-0E0],"categories":[],"categories_nodes":[],"categories_segments":[],"categories_sizes":[],"default_left":[0,0,0,0,0,0,0,0,0],"id":89,"left_children":[1,-1,3,5,7,-1,-1,-1,-1],"loss_changes":[3.3856984E-2,0E0,2.2236264E-1,8.368112E-2,1.8984047E-1,0E0,0E0,0E0,0E0],"parents":[2147483647,0,0,2,2,3,3,4,4],"right_children":[2,-1,4,6,8,-1,-1,-1,-1],"split_conditions":[6.7E1,-0E0,1E0,7.5E1,7.5E1,-1.0389104E-2,-0E0,2.8092286E-2,-0E0],"split_indices":[0,0,1,0,0,0,0,0,0],"split_type":[0,0,0,0,0,0,0,0,0],"sum_hessian":[4.246984E1,4.3598537E0,3.8109985E1,2.23631E1,1.5746887E1,8.381164E0,1.39819355E1,5.8391886E0,9.907699E0],"tree_param":{"num_deleted":"0","num_feature":"13","num_nodes":"9","size_leaf_vector":"1"}},{"base_weights":[-0E0,-0E0,-7.825429E-2,-0E0,4.0585827E-2,-0E0,-1.6540752E-1,-0E0,8.703871E-3,-2.8023586E-2,-0E0],"categories":[],"categories_nodes":[],"categories_segments":[],"categories_sizes":[],"default_left":[0,0,0,0,1,0,0,0,0,0,0],"id":90,"left_children":[1,3,5,-1,7,-1,9,-1,-1,-1,-1],"loss_changes":[4.866012E-2,5.2857205E-2,1.19892724E-1,0E0,8.4464654E-2,0E0,1.1646545E-1,0E0,0E0,0E0,0E0],"parents":[2147483647,0,0,1,1,2,2,4,4,6,6],"right_children":[2,4,6,-1,8,-1,10,-1,-1,-1,-1],"split_conditions":[1E0,3E0,1E0,-0E0,2E0,-0E0,2E0,-0E0,8.703871E-3,-2.8023586E-2,-0E0],"split_indices":[3,2,6,0,5,0,4,0,0,0,0],"split_type":[0,0,0,0,0,0,0,0,0,0,0],"sum_hessian":[4.2132572E1,3.518642E1,6.9461527E0,4.0974765E0,3.1088942E1,1.785516E0,5.1606364E0,1.0155835E1,2.0933107E1,3.391478E0,1.7691586E0],"tree_param":{"num_deleted":"0","num_feature":"13","num_nodes":"11","size_leaf_vector":"1"}},{"base_weights":[-0E0,3.0508378E-4,-9.342224E-2,1.3366221E-1,-0E0,-0E0,-2.210713E-1,-0E0,2.5816131E-2,-0E0,-3.5381805E-2],"categories":[],"categories_nodes":[],"categories_segments":[],"categories_sizes":[],"default_left":[0,0,0,0,0,0,0,0,0,0,0],"id":91,"left_children":[1,3,5,7,-1,-1,9,-1,-1,-1,-1],"loss_changes":[6.929323E-2,9.874526E-2,2.239955E-1,1.2094272E-1,0E0,0E0,2.1949992E-1,0E0,0E0,0E0,0E0],"parents":[2147483647,0,0,1,1,2,2,3,3,6,6],"right_children":[2,4,6,8,-1,-1,10,-1,-1,-1,-1],"split_conditions":[1E0,1E0,1E0,2E0,-0E0,-0E0,6.9E1,-0E0,2.5816131E-2,-0E0,-3.5381805E-2],"split_indices":[3,9,6,2,0,0,0,0,0,0,0],"split_type":[0,0,0,0,0,0,0,0,0,0,0],"sum_hessian":[4.2324E1,3.538494E1,6.939059E0,4.527311E0,3.0857632E1,1.9380317E0,5.001027E0,1.5387512E0,2.9885597E0,1.0446887E0,3.9563384E0],"tree_param":{"num_deleted":"0","num_feature":"13","num_nodes":"11","size_leaf_vector":"1"}},{"base_weights":[-0E0,-0E0,-9.652268E-3,-0E0,1.5218568E-2,-4.1158166E-2,-0E0,-0E0,-2.452999E-2],"categories":[],"categories_nodes":[],"categories_segments":[],"categories_sizes":[],"default_left":[0,0,0,0,0,0,0,0,0],"id":92,"left_children":[1,3,5,-1,-1,7,-1,-1,-1],"loss_changes":[3.4762868E-3,9.5377065E-2,5.5792738E-2,0E0,0E0,2.5313026E-1,0E0,0E0,0E0],"parents":[2147483647,0,0,1,1,2,2,5,5],"right_children":[2,4,6,-1,-1,8,-1,-1,-1],"split_conditions":[1E0,7.2E1,8.7E1,-0E0,1.5218568E-2,8.3E1,-0E0,-0E0,-2.452999E-2],"split_indices":[9,0,0,0,0,0,0,0,0],"split_type":[0,0,0,0,0,0,0,0,0],"sum_hessian":[4.2165516E1,5.852796E0,3.631272E1,1.8699013E0,3.982895E0,3.398773E1,2.3249907E0,2.870569E1,5.2820377E0],"tree_param":{"num_deleted":"0","num_feature":"13","num_nodes":"9","size_leaf_vector":"1"}},{"base_weights":[-0E0,-0E0,2.2606157E-2,-8.416726E-2,-0E0,3.7094455E-2,-0E0,-1.9720564E-2,-0E0,-0E0,1.0016585E-3],"categories":[],"categories_nodes":[],"categories_segments":[],"categories_sizes":[],"default_left":[1,1,0,0,0,0,0,0,0,0,0],"id":93,"left_children":[1,3,5,7,9,-1,-1,-1,-1,-1,-1],"loss_changes":[1.0081678E-2,7.906337E-2,2.9486948E-1,1.13153875E-1,1.1045606E-3,0E0,0E0,0E0,0E0,0E0,0E0],"parents":[2147483647,0,0,1,1,2,2,3,3,4,4],"right_children":[2,4,6,8,10,-1,-1,-1,-1,-1,-1],"split_conditions":[2E0,2E0,1E0,1E0,1E0,3.7094455E-2,-0E0,-1.9720564E-2,-0E0,-0E0,1.0016585E-3],"split_indices":[4,5,5,1,8,0,0,0,0,0,0],"split_type":[0,0,0,0,0,0,0,0,0,0,0],"sum_hessian":[4.205082E1,2.3322987E1,1.872783E1,1.0160637E1,1.3162351E1,1.681623E0,1.7046207E1,4.9805217E0,5.1801157E0,8.4138966E-1,1.2320961E1],"tree_param":{"num_deleted":"0","num_feature":"13","num_nodes":"11","size_leaf_vector":"1"}},{"base_weights":[-0E0,2.0560408E-3,-8.209173E-3,-2.4580766E-2,-0E0,-1.4488238E-3,4.542252E-3],"categories":[],"categories_nodes":[],"categories_segments":[],"categories_sizes":[],"default_left":[0,0,0,0,1,0,0],"id":94,"left_children":[1,-1,3,-1,5,-1,-1],"loss_changes":[6.099806E-3,0E0,1.0332715E-1,0E0,2.3352612E-2,0E0,0E0],"parents":[2147483647,0,0,2,2,4,4],"right_children":[2,-1,4,-1,6,-1,-1],"split_conditions":[1E0,2.0560408E-3,2E0,-2.4580766E-2,2E0,-1.4488238E-3,4.542252E-3],"split_indices":[6,0,2,0,4,0,0],"split_type":[0,0,0,0,0,0,0],"sum_hessian":[4.1594822E1,1.0213569E1,3.1381252E1,1.1129316E0,3.026832E1,1.9676407E1,1.0591913E1],"tree_param":{"num_deleted":"0","num_feature":"13","num_nodes":"7","size_leaf_vector":"1"}},{"base_weights":[-0E0,-0E0,1.9483153E-2,-0E0,-1.2930488E-3,8.337912E-3,-0E0,-4.665719E-3,-0E0],"categories":[],"categories_nodes":[],"categories_segments":[],"categories_sizes":[],"default_left":[0,0,0,0,0,0,1,0,0],"id":95,"left_children":[1,3,5,-1,-1,-1,7,-1,-1],"loss_changes":[1.0842456E-2,1.5236672E-3,8.609547E-2,0E0,0E0,0E0,1.5261379E-2,0E0,0E0],"parents":[2147483647,0,0,1,1,2,2,6,6],"right_children":[2,4,6,-1,-1,-1,8,-1,-1],"split_conditions":[8E0,1E0,1.4E1,-0E0,-1.2930488E-3,8.337912E-3,2E0,-4.665719E-3,-0E0],"split_indices":[2,9,2,0,0,0,4,0,0],"split_type":[0,0,0,0,0,0,0,0,0],"sum_hessian":[4.1859634E1,1.4296279E1,2.7563356E1,4.269576E0,1.0026703E1,1.5871915E1,1.1691441E1,7.4828544E0,4.2085867E0],"tree_param":{"num_deleted":"0","num_feature":"13","num_nodes":"9","size_leaf_vector":"1"}},{"base_weights":[-0E0,-2.2121971E-2,2.0479875E-2,-0E0,-6.413098E-2,-0E0,3.810573E-3,3.27296E-2,-0E0,-1.3965427E-2,-0E0],"categories":[],"categories_nodes":[],"categories_segments":[],"categories_sizes":[],"default_left":[0,0,0,0,0,0,0,0,0,0,0],"id":96,"left_children":[1,3,5,7,9,-1,-1,-1,-1,-1,-1],"loss_changes":[2.1083757E-2,1.1576164E-1,2.1493605E-3,2.5069273E-1,1.4885418E-1,0E0,0E0,0E0,0E0,0E0,0E0],"parents":[2147483647,0,0,1,1,2,2,3,3,4,4],"right_children":[2,4,6,8,10,-1,-1,-1,-1,-1,-1],"split_conditions":[8.7E1,6.9E1,1E0,1.2E1,1.2E1,-0E0,3.810573E-3,3.27296E-2,-0E0,-1.3965427E-2,-0E0],"split_indices":[0,0,8,2,2,0,0,0,0,0,0],"split_type":[0,0,0,0,0,0,0,0,0,0,0],"sum_hessian":[4.164152E1,3.87305E1,2.9110243E0,6.8561525E0,3.1874346E1,7.530069E-1,2.1580174E0,1.8316896E0,5.0244627E0,1.6623236E1,1.525111E1],"tree_param":{"num_deleted":"0","num_feature":"13","num_nodes":"11","size_leaf_vector":"1"}},{"base_weights":[-0E0,-4.097352E-2,-0E0,-1.733757E-1,-0E0,1.3755476E-1,-0E0,-0E0,-3.817079E-2,1.6479049E-2,-2.4649545E-3,-0E0,2.2074234E-2,-1.2970079E-2,-0E0],"categories":[],"categories_nodes":[],"categories_segments":[],"categories_sizes":[],"default_left":[0,0,0,0,0,0,0,0,0,0,0,0,0,0,0],"id":97,"left_children":[1,3,5,7,9,11,13,-1,-1,-1,-1,-1,-1,-1,-1],"loss_changes":[4.8684623E-2,3.4173387E-1,1.11809425E-1,9.309448E-1,1.9597496E-1,7.709768E-2,8.172437E-2,0E0,0E0,0E0,0E0,0E0,0E0,0E0,0E0],"parents":[2147483647,0,0,1,1,2,2,3,3,4,4,5,5,6,6],"right_children":[2,4,6,8,10,12,14,-1,-1,-1,-1,-1,-1,-1,-1],"split_conditions":[8.1E1,1E1,8.3E1,7E1,1.4E1,1E0,8.5E1,-0E0,-3.817079E-2,1.6479049E-2,-2.4649545E-3,-0E0,2.2074234E-2,-1.2970079E-2,-0E0],"split_indices":[0,2,0,0,2,5,0,0,0,0,0,0,0,0,0],"split_type":[0,0,0,0,0,0,0,0,0,0,0,0,0,0,0],"sum_hessian":[4.2605286E1,2.7999146E1,1.4606142E1,1.1988348E1,1.6010798E1,4.9091797E0,9.696962E0,2.0148423E0,9.973506E0,7.5198016E0,8.490995E0,1.2182131E0,3.6909666E0,4.8782988E0,4.8186636E0],"tree_param":{"num_deleted":"0","num_feature":"13","num_nodes":"15","size_leaf_vector":"1"}},{"base_weights":[-0E0,-0E0,1.7979907E-2,-0E0,-2.5880868E-3,3.1075832E-2,-0E0,-1.092175E-2,2.02087E-3],"categories":[],"categories_nodes":[],"categories_segments":[],"categories_sizes":[],"default_left":[0,0,0,0,0,0,0,0,0],"id":98,"left_children":[1,3,5,-1,-1,-1,7,-1,-1],"loss_changes":[1.2435672E-2,2.6136606E-3,2.6131073E-1,0E0,0E0,0E0,9.00017E-2,0E0,0E0],"parents":[2147483647,0,0,1,1,2,2,6,6],"right_children":[2,4,6,-1,-1,-1,8,-1,-1],"split_conditions":[6.7E1,1E0,6.9E1,-0E0,-2.5880868E-3,3.1075832E-2,7.3E1,-1.092175E-2,2.02087E-3],"split_indices":[0,8,0,0,0,0,0,0,0],"split_type":[0,0,0,0,0,0,0,0,0],"sum_hessian":[4.135507E1,3.887531E0,3.7467537E1,1.6606414E-1,3.7214668E0,2.4299536E0,3.5037582E1,7.1402454E0,2.7897337E1],"tree_param":{"num_deleted":"0","num_feature":"13","num_nodes":"9","size_leaf_vector":"1"}},{"base_weights":[-0E0,1.9904888E-1,-0E0,2.5090456E-1,-0E0,-2.6999472E-2,-0E0,-0E0,3.697846E-2,-0E0,-2.1409554E-2],"categories":[],"categories_nodes":[],"categories_segments":[],"categories_sizes":[],"default_left":[0,0,0,0,0,0,0,0,0,0,0],"id":99,"left_children":[1,3,5,7,-1,9,-1,-1,-1,-1,-1],"loss_changes":[2.5405574E-1,1.3205782E-1,2.6264638E-2,1.0934016E-1,0E0,2.532173E-1,0E0,0E0,0E0,0E0,0E0],"parents":[2147483647,0,0,1,1,2,2,3,3,5,5],"right_children":[2,4,6,8,-1,10,-1,-1,-1,-1,-1],"split_conditions":[1E0,1.4E1,8.9E1,2E0,-0E0,8.3E1,-0E0,-0E0,3.697846E-2,-0E0,-2.1409554E-2],"split_indices":[9,2,0,2,0,0,0,0,0,0,0],"split_type":[0,0,0,0,0,0,0,0,0,0,0],"sum_hessian":[4.175268E1,5.4122367E0,3.6340446E1,5.1333537E0,2.7888316E-1,3.5029716E1,1.3107299E0,1.7491488E0,3.3842046E0,2.8651968E1,6.377749E0],"tree_param":{"num_deleted":"0","num_feature":"13","num_nodes":"11","size_leaf_vector":"1"}},{"base_weights":[-0E0,2.5335E-3,-2.0932697E-2,-0E0,-3.116191E-2,-5.928154E-3,-0E0],"categories":[],"categories_nodes":[],"categories_segments":[],"categories_sizes":[],"default_left":[0,0,0,0,1,0,0],"id":100,"left_children":[1,-1,3,-1,5,-1,-1],"loss_changes":[1.9575968E-2,0E0,1.4766981E-2,0E0,2.8917173E-2,0E0,0E0],"parents":[2147483647,0,0,2,2,4,4],"right_children":[2,-1,4,-1,6,-1,-1],"split_conditions":[1E0,2.5335E-3,1E0,-0E0,2E0,-5.928154E-3,-0E0],"split_indices":[7,0,9,0,4,0,0],"split_type":[0,0,0,0,0,0,0],"sum_hessian":[4.056326E1,9.030592E0,3.153267E1,2.6458051E0,2.8886864E1,1.894891E1,9.937953E0],"tree_param":{"num_deleted":"0","num_feature":"13","num_nodes":"7","size_leaf_vector":"1"}},{"base_weights":[-0E0,-5.450848E-4,3.7189182E-2,-0E0,-8.1540436E-2,2.1841656E-2,-0E0,-0E0,7.7438663E-4,-0E0,-2.585616E-2],"categories":[],"categories_nodes":[],"categories_segments":[],"categories_sizes":[],"default_left":[0,0,0,0,0,0,0,0,0,0,0],"id":101,"left_children":[1,3,5,7,9,-1,-1,-1,-1,-1,-1],"loss_changes":[5.1064175E-3,5.1317282E-2,1.3035342E-1,1.4656094E-3,2.9579812E-1,0E0,0E0,0E0,0E0,0E0,0E0],"parents":[2147483647,0,0,1,1,2,2,3,3,4,4],"right_children":[2,4,6,8,10,-1,-1,-1,-1,-1,-1],"split_conditions":[8.7E1,8.3E1,4.00001E0,6.7E1,1E0,2.1841656E-2,-0E0,-0E0,7.7438663E-4,-0E0,-2.585616E-2],"split_indices":[0,0,4,0,12,0,0,0,0,0,0],"split_type":[0,0,0,0,0,0,0,0,0,0,0],"sum_hessian":[4.242644E1,3.974301E1,2.683429E0,3.302296E1,6.7200494E0,2.435469E0,2.4796015E-1,4.450469E0,2.8572493E1,1.4373485E0,5.2827005E0],"tree_param":{"num_deleted":"0","num_feature":"13","num_nodes":"11","size_leaf_vector":"1"}},{"base_weights":[-0E0,-0E0,-3.5384465E-3,-0E0,-2.324573E-2,-0E0,-4.5951083E-3],"categories":[],"categories_nodes":[],"categories_segments":[],"categories_sizes":[],"default_left":[0,0,0,0,0,0,0],"id":102,"left_children":[1,-1,3,-1,5,-1,-1],"loss_changes":[4.6573597E-4,0E0,1.898507E-2,0E0,3.830824E-2,0E0,0E0],"parents":[2147483647,0,0,2,2,4,4],"right_children":[2,-1,4,-1,6,-1,-1],"split_conditions":[1E0,-0E0,1E0,-0E0,1E0,-0E0,-4.5951083E-3],"split_indices":[9,0,10,0,11,0,0],"split_type":[0,0,0,0,0,0,0],"sum_hessian":[4.200896E1,5.811395E0,3.6197567E1,1.2018127E0,3.4995754E1,2.8968267E0,3.2098927E1],"tree_param":{"num_deleted":"0","num_feature":"13","num_nodes":"7","size_leaf_vector":"1"}},